{"learner":{"attributes":{"scikit_learn":"{\"_estimator_type\": \"classifier\"}"},"feature_names":[],"feature_types":[],"gradient_booster":{"model":{"cats":{"enc":[],"feature_segments":[],"sorted_idx":[]},"gbtree_model_param":{"num_parallel_tree":"1","num_trees":"300"},"iteration_indptr":[0,1,2,3,4,5,6,7,8,9,10,11,12,13,14,15,16,17,18,19,20,21,22,23,24,25,26,27,28,29,30,31,32,33,34,35,36,37,38,39,40,41,42,43,44,45,46,47,48,49,50,51,52,53,54,55,56,57,58,59,60,61,62,63,64,65,66,67,68,69,70,71,72,73,74,75,76,77,78,79,80,81,82,83,84,85,86,87,88,89,90,91,92,93,94,95,96,97,98,99,100,101,102,103,104,105,106,107,108,109,110,111,112,113,114,115,116,117,118,119,120,121,122,123,124,125,126,127,128,129,130,131,132,133,134,135,136,137,138,139,140,141,142,143,144,145,146,147,148,149,150,151,152,153,154,155,156,157,158,159,160,161,162,163,164,165,166,167,168,169,170,171,172,173,174,175,176,177,178,179,180,181,182,183,184,185,186,187,188,189,190,191,192,193,194,195,196,197,198,199,200,201,202,203,204,205,206,207,208,209,210,211,212,213,214,215,216,217,218,219,220,221,222,223,224,225,226,227,228,229,230,231,232,233,234,235,236,237,238,239,240,241,242,243,244,245,246,247,248,249,250,251,252,253,254,255,256,257,258,259,260,261,262,263,264,265,266,267,268,269,270,271,272,273,274,275,276,277,278,279,280,281,282,283,284,285,286,287,288,289,290,291,292,293,294,295,296,297,298,299,300],"tree_info":[0,0,0,0,0,0,0,0,0,0,0,0,0,0,0,0,0,0,0,0,0,0,0,0,0,0,0,0,0,0,0,0,0,0,0,0,0,0,0,0,0,0,0,0,0,0,0,0,0,0,0,0,0,0,0,0,0,0,0,0,0,0,0,0,0,0,0,0,0,0,0,0,0,0,0,0,0,0,0,0,0,0,0,0,0,0,0,0,0,0,0,0,0,0,0,0,0,0,0,0,0,0,0,0,0,0,0,0,0,0,0,0,0,0,0,0,0,0,0,0,0,0,0,0,0,0,0,0,0,0,0,0,0,0,0,0,0,0,0,0,0,0,0,0,0,0,0,0,0,0,0,0,0,0,0,0,0,0,0,0,0,0,0,0,0,0,0,0,0,0,0,0,0,0,0,0,0,0,0,0,0,0,0,0,0,0,0,0,0,0,0,0,0,0,0,0,0,0,0,0,0,0,0,0,0,0,0,0,0,0,0,0,0,0,0,0,0,0,0,0,0,0,0,0,0,0,0,0,0,0,0,0,0,0,0,0,0,0,0,0,0,0,0,0,0,0,0,0,0,0,0,0,0,0,0,0,0,0,0,0,0,0,0,0,0,0,0,0,0,0,0,0,0,0,0,0,0,0,0,0,0,0,0,0,0,0,0,0,0,0,0,0,0,0,0,0,0,0,0,0],"trees":[{"base_weights":[2.2940165E-3,-2.8211752E-1,1.6954629E-1,-4.6446207E-1,1.0840496E0,-2.67194E-1,3.2694384E-1,1.1119335E0,-5.67719E-1,1.6377804E0,3.1610265E-1,4.8390705E-2,-8.8143617E-1,9.1093093E-1,9.062569E-2,6.4192735E-2,-1.16872415E-2,-3.9465092E-2,-9.365001E-3,4.526761E-4,8.5247405E-2,2.8922489E-2,-6.5E-2,2.7308134E-2,-9.889872E-3,4.5879703E-2,-5.302676E-2,-1.1234399E-2,5.8251586E-2,2.0655608E-2,-1.0256898E-2],"categories":[],"categories_nodes":[],"categories_segments":[],"categories_sizes":[],"default_left":[0,0,0,0,0,0,0,0,0,0,0,0,0,0,0,0,0,0,0,0,0,0,0,0,0,0,0,0,0,0,0],"id":0,"left_children":[1,3,5,7,9,11,13,15,17,19,21,23,25,27,29,-1,-1,-1,-1,-1,-1,-1,-1,-1,-1,-1,-1,-1,-1,-1,-1],"loss_changes":[4.7519188E1,9.2560616E1,4.3359917E1,5.380523E1,1.7903595E1,3.252197E1,6.3753593E1,5.1203423E0,2.568573E1,2.561554E0,9.013908E0,1.3775022E1,1.9314865E1,3.8801758E1,3.1681099E1,0E0,0E0,0E0,0E0,0E0,0E0,0E0,0E0,0E0,0E0,0E0,0E0,0E0,0E0,0E0,0E0],"parents":[2147483647,0,0,1,1,2,2,3,3,4,4,5,5,6,6,7,7,8,8,9,9,10,10,11,11,12,12,13,13,14,14],"right_children":[2,4,6,8,10,12,14,16,18,20,22,24,26,28,30,-1,-1,-1,-1,-1,-1,-1,-1,-1,-1,-1,-1,-1,-1,-1,-1],"split_conditions":[9.2E-1,2.6755E4,1.476E0,1.3091E4,4.621439E-1,9.0870243E-1,1.627E0,8.92E-1,3.8495058E-1,3.988984E0,8.99E-1,3.543814E-1,9.48E-1,9.88E-1,5.6267965E-1,6.4192735E-2,-1.16872415E-2,-3.9465092E-2,-9.365001E-3,4.526761E-4,8.5247405E-2,2.8922489E-2,-6.5E-2,2.7308134E-2,-9.889872E-3,4.5879703E-2,-5.302676E-2,-1.1234399E-2,5.8251586E-2,2.0655608E-2,-1.0256898E-2],"split_indices":[6,18,16,18,8,7,16,6,19,3,6,8,6,6,8,0,0,0,0,0,0,0,0,0,0,0,0,0,0,0,0],"split_type":[0,0,0,0,0,0,0,0,0,0,0,0,0,0,0,0,0,0,0,0,0,0,0,0,0,0,0,0,0,0,0],"sum_hessian":[9.9719495E2,3.6878815E2,6.284068E2,3.2600848E2,4.2779663E1,1.6612288E2,4.622839E2,1.9381357E1,3.0662714E2,2.4122883E1,1.865678E1,1.1024153E2,5.5881355E1,1.3223306E2,3.3005084E2,1.7292374E1,2.088983E0,1.929195E2,1.1370763E2,1.0593221E0,2.306356E1,1.665678E1,2E0,3.6211864E1,7.402966E1,4.6355934E0,5.124576E1,2.412712E1,1.08105934E2,1.5786441E2,1.7218645E2],"tree_param":{"num_deleted":"0","num_feature":"20","num_nodes":"31","size_leaf_vector":"1"}},{"base_weights":[-5.064409E-3,-1.6630593E-1,2.9732242E-1,-2.4836794E-1,4.9774596E-1,-3.554305E-1,5.268698E-1,2.0587155E-1,-3.4973958E-1,1.170054E0,-5.407927E-2,-4.6076324E-2,-1.5417627E0,1.1841121E0,1.3729426E-1,-3.9952868E-3,3.3856455E-2,-2.8239457E-2,-3.641362E-3,8.166621E-2,1.5870392E-2,2.2985164E-2,-1.654127E-2,2.9714057E-2,-1.45208035E-2,-2.7289271E-2,-8.398752E-2,4.1292764E-2,7.8442775E-2,4.4554334E-2,-1.7003799E-2],"categories":[],"categories_nodes":[],"categories_segments":[],"categories_sizes":[],"default_left":[0,0,0,0,0,0,0,0,0,0,0,0,0,0,0,0,0,0,0,0,0,0,0,0,0,0,0,0,0,0,0],"id":1,"left_children":[1,3,5,7,9,11,13,15,17,19,21,23,25,27,29,-1,-1,-1,-1,-1,-1,-1,-1,-1,-1,-1,-1,-1,-1,-1,-1],"loss_changes":[4.8565277E1,3.5520515E1,5.2092587E1,2.6762714E1,2.6772318E1,3.3012505E1,6.54364E1,1.4409326E1,2.8132458E1,1.2101963E1,5.8619704E0,1.1555118E1,1.4219818E0,1.1602249E1,5.8797844E1,0E0,0E0,0E0,0E0,0E0,0E0,0E0,0E0,0E0,0E0,0E0,0E0,0E0,0E0,0E0,0E0],"parents":[2147483647,0,0,1,1,2,2,3,3,4,4,5,5,6,6,7,7,8,8,9,9,10,10,11,11,12,12,13,13,14,14],"right_children":[2,4,6,8,10,12,14,16,18,20,22,24,26,28,30,-1,-1,-1,-1,-1,-1,-1,-1,-1,-1,-1,-1,-1,-1,-1,-1],"split_conditions":[1.096E0,2.6755E4,1.476E0,1.4592E4,8.63E-1,1.47E0,1.636E0,1.280013E-1,9.22E-1,5.020255E-1,-2.4547115E-2,3.4551102E-1,-5.7527363E-1,1.21E0,1.0232217E0,-3.9952868E-3,3.3856455E-2,-2.8239457E-2,-3.641362E-3,8.166621E-2,1.5870392E-2,2.2985164E-2,-1.654127E-2,2.9714057E-2,-1.45208035E-2,-2.7289271E-2,-8.398752E-2,4.1292764E-2,7.8442775E-2,4.4554334E-2,-1.7003799E-2],"split_indices":[6,18,16,18,6,16,16,10,6,8,12,8,11,6,9,0,0,0,0,0,0,0,0,0,0,0,0,0,0,0,0],"split_type":[0,0,0,0,0,0,0,0,0,0,0,0,0,0,0,0,0,0,0,0,0,0,0,0,0,0,0,0,0,0,0],"sum_hessian":[9.94316E2,6.4902014E2,3.4529584E2,5.7832825E2,7.06919E1,8.957933E1,2.557165E2,1.0514833E2,4.731799E2,3.1443756E1,3.9248142E1,7.194239E1,1.7636942E1,9.431092E1,1.6140558E2,6.5840164E1,3.9308167E1,2.6555203E2,2.0762787E2,1.9704685E1,1.1739071E1,1.3381949E1,2.5866194E1,1.9360798E1,5.2581593E1,2.8373475E0,1.4799594E1,5.0600395E1,4.371053E1,6.2328487E1,9.9077095E1],"tree_param":{"num_deleted":"0","num_feature":"20","num_nodes":"31","size_leaf_vector":"1"}},{"base_weights":[-1.5818551E-2,-8.904965E-2,1.4922746E-1,-1.5632883E-1,6.241996E-1,1.2504603E0,4.756883E-2,-5.981073E-1,-7.4476905E-2,1.1178277E0,3.107675E-1,1.3643451E0,-6.168228E-3,-1.559565E-1,6.885349E-1,4.6868842E-2,-3.3525687E-2,-4.3718066E-2,-1.5622621E-3,7.06129E-2,1.2852304E-2,3.4994014E-2,-4.9051596E-3,7.133015E-2,-0E0,3.1118488E-3,-4.7564577E-2,5.510486E-4,4.5396455E-2],"categories":[],"categories_nodes":[],"categories_segments":[],"categories_sizes":[],"default_left":[0,0,0,0,0,0,0,0,0,0,0,0,0,0,0,0,0,0,0,0,0,0,0,0,0,0,0,0,0],"id":2,"left_children":[1,3,5,7,9,11,13,15,17,19,21,23,-1,25,27,-1,-1,-1,-1,-1,-1,-1,-1,-1,-1,-1,-1,-1,-1],"loss_changes":[1.2133988E1,3.3450336E1,3.4326244E1,2.2920513E1,8.803181E0,4.349888E0,3.7128258E1,1.1634373E1,1.8511108E1,5.253216E0,6.2139554E0,2.0380783E0,0E0,3.759404E1,1.0094753E1,0E0,0E0,0E0,0E0,0E0,0E0,0E0,0E0,0E0,0E0,0E0,0E0,0E0,0E0],"parents":[2147483647,0,0,1,1,2,2,3,3,4,4,5,5,6,6,7,7,8,8,9,9,10,10,11,11,13,13,14,14],"right_children":[2,4,6,8,10,12,14,16,18,20,22,24,-1,26,28,-1,-1,-1,-1,-1,-1,-1,-1,-1,-1,-1,-1,-1,-1],"split_conditions":[1.0409048E0,2.6755E4,3.7233334E0,3.0673724E-1,8.1192136E-1,2.9523343E-1,4.9333334E0,5.4E-1,3.7233334E0,1.8808546E0,1.655672E0,9.46312E0,-6.168228E-3,4.613333E0,1.0974083E0,4.6868842E-2,-3.3525687E-2,-4.3718066E-2,-1.5622621E-3,7.06129E-2,1.2852304E-2,3.4994014E-2,-4.9051596E-3,7.133015E-2,-0E0,3.1118488E-3,-4.7564577E-2,5.510486E-4,4.5396455E-2],"split_indices":[9,18,15,8,9,11,15,0,15,7,7,3,0,15,9,0,0,0,0,0,0,0,0,0,0,0,0,0,0],"split_type":[0,0,0,0,0,0,0,0,0,0,0,0,0,0,0,0,0,0,0,0,0,0,0,0,0,0,0,0,0],"sum_hessian":[1.0023275E3,6.9501495E2,3.0731256E2,6.359484E2,5.906653E1,2.4933397E1,2.8237918E2,9.8232155E1,5.3771625E2,2.1818638E1,3.7247894E1,2.3098326E1,1.8350716E0,2.1478073E2,6.759845E1,3.823441E0,9.4408714E1,2.6467577E1,5.112487E2,1.5693748E1,6.124889E0,1.8845707E1,1.8402185E1,2.2042295E1,1.0560288E0,1.6916716E2,4.561357E1,1.690376E1,5.0694683E1],"tree_param":{"num_deleted":"0","num_feature":"20","num_nodes":"29","size_leaf_vector":"1"}},{"base_weights":[2.5374776E-2,3.4714794E-1,2.834685E-3,-1.6403115E-1,5.098025E-1,-4.276902E-2,1.6169143E-1,5.5707514E-1,-8.016768E-1,3.1313428E-1,9.740997E-1,-3.3920163E-1,-4.773282E-3,3.3709058E-1,-1.4420708E-1,5.0008334E-2,-5.123476E-2,1.7075406E-2,-6.672266E-2,-7.7064256E-3,3.0760884E-2,-1.6848097E-2,6.700044E-2,-0E0,-3.537815E-2,4.9836603E-3,-4.7543477E-3,-2.733857E-2,1.9340875E-2,4.1275012E-4,-2.5397126E-2],"categories":[],"categories_nodes":[],"categories_segments":[],"categories_sizes":[],"default_left":[0,0,0,0,0,0,0,0,0,0,0,0,0,0,0,0,0,0,0,0,0,0,0,0,0,0,0,0,0,0,0],"id":3,"left_children":[1,3,5,7,9,11,13,15,17,19,21,23,25,27,29,-1,-1,-1,-1,-1,-1,-1,-1,-1,-1,-1,-1,-1,-1,-1,-1],"loss_changes":[7.273715E0,5.5791073E0,6.8515353E0,8.04053E0,4.151661E0,8.221023E0,1.1392508E1,6.79891E0,6.170733E0,5.349437E0,7.4200087E0,1.0346832E1,6.1510286E0,6.1138096E0,4.3470736E0,0E0,0E0,0E0,0E0,0E0,0E0,0E0,0E0,0E0,0E0,0E0,0E0,0E0,0E0,0E0,0E0],"parents":[2147483647,0,0,1,1,2,2,3,3,4,4,5,5,6,6,7,7,8,8,9,9,10,10,11,11,12,12,13,13,14,14],"right_children":[2,4,6,8,10,12,14,16,18,20,22,24,26,28,30,-1,-1,-1,-1,-1,-1,-1,-1,-1,-1,-1,-1,-1,-1,-1,-1],"split_conditions":[-5.3432095E-1,-4.2717084E-2,1.14E1,-7.77666E-2,-5.9836024E-1,1.08E0,1.17E0,8.119697E0,1.476E0,4.6915817E-3,3.4E0,1.8913E4,5.45E0,-1.4503772E0,-5.6207336E-2,5.0008334E-2,-5.123476E-2,1.7075406E-2,-6.672266E-2,-7.7064256E-3,3.0760884E-2,-1.6848097E-2,6.700044E-2,-0E0,-3.537815E-2,4.9836603E-3,-4.7543477E-3,-2.733857E-2,1.9340875E-2,4.1275012E-4,-2.5397126E-2],"split_indices":[11,12,4,12,11,2,0,3,16,13,4,18,14,7,11,0,0,0,0,0,0,0,0,0,0,0,0,0,0,0,0],"split_type":[0,0,0,0,0,0,0,0,0,0,0,0,0,0,0,0,0,0,0,0,0,0,0,0,0,0,0,0,0,0,0],"sum_hessian":[1.0068453E3,6.4678825E1,9.421665E2,1.5462171E1,4.9216656E1,7.3210046E2,2.1006602E2,7.2419076E0,8.220263E0,3.589989E1,1.3316765E1,8.197717E1,6.501233E2,1.336547E2,7.641133E1,5.9938107E0,1.248097E0,2.6676216E0,5.552641E0,1.4158405E1,2.1741486E1,2.863301E0,1.0453464E1,4.3240463E1,3.873671E1,3.0091196E2,3.4921133E2,6.479498E0,1.2717519E2,5.4337708E1,2.2073626E1],"tree_param":{"num_deleted":"0","num_feature":"20","num_nodes":"31","size_leaf_vector":"1"}},{"base_weights":[8.371732E-3,-1.2478855E-1,2.5611788E-1,-2.010224E-1,4.8901513E-1,-4.0257314E-1,4.9292603E-1,-3.3929247E-1,1.2347003E-1,1.1310513E0,-1.0329701E-2,-1.5178688E-1,-1.4367245E0,9.337562E-1,-1.2677705E-1,-3.4103326E-2,-6.798733E-3,1.517971E-2,-6.9628768E-3,7.967643E-2,2.2781134E-2,-6.7784116E-3,4.7562055E-2,2.2085993E-2,-1.9438757E-2,3.9457446E-3,-7.7067845E-2,5.484119E-2,-8.940276E-3,2.2980383E-2,-2.8592868E-2],"categories":[],"categories_nodes":[],"categories_segments":[],"categories_sizes":[],"default_left":[0,0,0,0,0,0,0,0,0,0,0,0,0,0,0,0,0,0,0,0,0,0,0,0,0,0,0,0,0,0,0],"id":4,"left_children":[1,3,5,7,9,11,13,15,17,19,21,23,25,27,29,-1,-1,-1,-1,-1,-1,-1,-1,-1,-1,-1,-1,-1,-1,-1,-1],"loss_changes":[3.3164635E1,3.0642723E1,5.5043655E1,2.6178514E1,2.3312588E1,2.3847475E1,7.099393E1,2.8302917E1,8.3132925E0,8.983822E0,5.0558476E0,1.0908175E1,3.1278114E0,2.7799225E1,2.8592735E1,0E0,0E0,0E0,0E0,0E0,0E0,0E0,0E0,0E0,0E0,0E0,0E0,0E0,0E0,0E0,0E0],"parents":[2147483647,0,0,1,1,2,2,3,3,4,4,5,5,6,6,7,7,8,8,9,9,10,10,11,11,12,12,13,13,14,14],"right_children":[2,4,6,8,10,12,14,16,18,20,22,24,26,28,30,-1,-1,-1,-1,-1,-1,-1,-1,-1,-1,-1,-1,-1,-1,-1,-1],"split_conditions":[1.096E0,2.6755E4,1.476E0,1.716E0,8.63E-1,1.47E0,1.716E0,8.4E-1,9.918111E-1,4.621439E-1,5.0068427E-2,3.6289504E-1,1.118E0,6.0436374E-1,7.7199304E-1,-3.4103326E-2,-6.798733E-3,1.517971E-2,-6.9628768E-3,7.967643E-2,2.2781134E-2,-6.7784116E-3,4.7562055E-2,2.2085993E-2,-1.9438757E-2,3.9457446E-3,-7.7067845E-2,5.484119E-2,-8.940276E-3,2.2980383E-2,-2.8592868E-2],"split_indices":[6,18,16,16,6,16,16,6,9,8,12,8,6,19,8,0,0,0,0,0,0,0,0,0,0,0,0,0,0,0,0],"split_type":[0,0,0,0,0,0,0,0,0,0,0,0,0,0,0,0,0,0,0,0,0,0,0,0,0,0,0,0,0,0,0],"sum_hessian":[1.00292834E3,6.5237695E2,3.5055136E2,5.810469E2,7.133008E1,9.2403946E1,2.581474E2,4.0761844E2,1.7342847E2,3.074048E1,4.0589596E1,7.536989E1,1.7034056E1,1.5064186E2,1.07505554E2,1.507024E2,2.5691605E2,1.03022224E2,7.040624E1,1.7351963E1,1.3388517E1,3.676429E1,3.8253067E0,2.114046E1,5.422943E1,1.054164E0,1.5979892E1,1.3147557E2,1.9166286E1,4.6277943E1,6.122761E1],"tree_param":{"num_deleted":"0","num_feature":"20","num_nodes":"31","size_leaf_vector":"1"}},{"base_weights":[-1.5192239E-3,-2.084714E-1,1.7142156E-1,-2.9156533E-1,1.2293965E0,8.1408876E-1,4.695219E-2,5.244588E-1,-3.9918545E-1,1.4232733E0,-4.043415E-2,3.9563632E-1,1.3273854E0,1.1233099E-1,-9.4831806E-1,3.687596E-2,-3.606703E-3,-4.5285504E-2,-1.4160558E-2,-0E0,7.452859E-2,3.446924E-2,-1.3031395E-2,6.81512E-2,6.566944E-3,-4.2860325E-2,9.056447E-3,1.3197884E-2,-6.982254E-2],"categories":[],"categories_nodes":[],"categories_segments":[],"categories_sizes":[],"default_left":[0,0,0,0,0,0,0,0,0,0,0,0,0,0,0,0,0,0,0,0,0,0,0,0,0,0,0,0,0],"id":5,"left_children":[1,3,5,7,9,11,13,15,17,19,-1,21,23,25,27,-1,-1,-1,-1,-1,-1,-1,-1,-1,-1,-1,-1,-1,-1],"loss_changes":[3.5982105E1,5.497199E1,4.366082E1,3.828853E1,1.1146709E1,1.8337185E1,2.9938454E1,6.58488E0,2.2175308E1,2.244175E0,0E0,9.929265E0,1.3453369E0,2.8929438E1,1.5883604E1,0E0,0E0,0E0,0E0,0E0,0E0,0E0,0E0,0E0,0E0,0E0,0E0,0E0,0E0],"parents":[2147483647,0,0,1,1,2,2,3,3,4,4,5,5,6,6,7,7,8,8,9,9,11,11,12,12,13,13,14,14],"right_children":[2,4,6,8,10,12,14,16,18,20,-1,22,24,26,28,-1,-1,-1,-1,-1,-1,-1,-1,-1,-1,-1,-1,-1,-1],"split_conditions":[9.65E-1,6.5E0,3.8833334E0,4.01E0,9.46E-1,1.163E0,6.5E0,1.24E0,3.8833334E0,3.988984E0,-4.043415E-2,6.25E0,2.14E0,3.98E0,1.071E0,3.687596E-2,-3.606703E-3,-4.5285504E-2,-1.4160558E-2,-0E0,7.452859E-2,3.446924E-2,-1.3031395E-2,6.81512E-2,6.566944E-3,-4.2860325E-2,9.056447E-3,1.3197884E-2,-6.982254E-2],"split_indices":[6,14,15,14,6,6,14,0,15,3,0,14,2,14,6,0,0,0,0,0,0,0,0,0,0,0,0,0,0],"split_type":[0,0,0,0,0,0,0,0,0,0,0,0,0,0,0,0,0,0,0,0,0,0,0,0,0,0,0,0,0],"sum_hessian":[1.0032523E3,4.568858E2,5.463665E2,4.3274442E2,2.4141392E1,8.76197E1,4.587468E2,4.9862453E1,3.82882E2,2.2364632E1,1.7767594E0,4.9352158E1,3.8267536E1,4.313962E2,2.7350586E1,3.6690594E1,1.3171859E1,6.990331E1,3.1297867E2,1.0521002E0,2.1312532E1,3.4162636E1,1.5189524E1,3.6943516E1,1.3240192E0,2.7727812E1,4.036684E2,7.4324293E0,1.9918158E1],"tree_param":{"num_deleted":"0","num_feature":"20","num_nodes":"29","size_leaf_vector":"1"}},{"base_weights":[2.9708954E-2,-1.8604615E-1,2.0295824E-1,3.8056406E-1,-3.9913154E-1,2.70809E-1,-9.9489605E-1,1.6085917E-1,1.2242951E0,-1.0170383E0,-6.1551876E-2,-8.638412E-1,3.3383507E-1,7.35252E-2,-1.3707653E0,-8.816724E-3,1.6242025E-2,6.857806E-2,-1.9658487E-2,-7.0382215E-2,-3.1445354E-2,1.2954722E-2,-3.5599343E-2,1.4321471E-2,-5.9343357E-2,4.14437E-2,1.12418E-2,3.5526007E-2,-3.511478E-2,-1.9706678E-2,-7.218487E-2],"categories":[],"categories_nodes":[],"categories_segments":[],"categories_sizes":[],"default_left":[0,0,0,0,0,0,0,0,0,0,0,0,0,0,0,0,0,0,0,0,0,0,0,0,0,0,0,0,0,0,0],"id":6,"left_children":[1,3,5,7,9,11,13,15,17,19,21,23,25,27,29,-1,-1,-1,-1,-1,-1,-1,-1,-1,-1,-1,-1,-1,-1,-1,-1],"loss_changes":[3.7377247E1,5.3897686E1,4.5284653E1,2.2286556E1,6.7434204E1,3.7842278E1,1.22273445E1,5.494687E0,6.5842247E0,1.6245308E1,4.4186115E1,1.0785156E1,2.6634216E1,4.7767215E0,8.29834E-1,0E0,0E0,0E0,0E0,0E0,0E0,0E0,0E0,0E0,0E0,0E0,0E0,0E0,0E0,0E0,0E0],"parents":[2147483647,0,0,1,1,2,2,3,3,4,4,5,5,6,6,7,7,8,8,9,9,10,10,11,11,12,12,13,13,14,14],"right_children":[2,4,6,8,10,12,14,16,18,20,22,24,26,28,30,-1,-1,-1,-1,-1,-1,-1,-1,-1,-1,-1,-1,-1,-1,-1,-1],"split_conditions":[9.63E-1,1.476E0,6.5E0,6.35E0,1.636E0,3.98E0,1.071E0,3.4551102E-1,9.41E-1,8.23E-1,4.85E0,1.071E0,3.8833334E0,1.06E0,2.1E0,-8.816724E-3,1.6242025E-2,6.857806E-2,-1.9658487E-2,-7.0382215E-2,-3.1445354E-2,1.2954722E-2,-3.5599343E-2,1.4321471E-2,-5.9343357E-2,4.14437E-2,1.12418E-2,3.5526007E-2,-3.511478E-2,-1.9706678E-2,-7.218487E-2],"split_indices":[6,16,14,14,16,14,6,8,6,6,14,6,15,0,4,0,0,0,0,0,0,0,0,0,0,0,0,0,0,0,0],"split_type":[0,0,0,0,0,0,0,0,0,0,0,0,0,0,0,0,0,0,0,0,0,0,0,0,0,0,0,0,0,0,0],"sum_hessian":[9.9788654E2,4.4413464E2,5.537519E2,1.2103585E2,3.230988E2,5.248783E2,2.8873585E1,9.706865E1,2.3967197E1,1.1333716E2,2.0976163E2,2.6868868E1,4.9800943E2,7.6543026E0,2.1219282E1,3.1536081E1,6.553257E1,2.2163155E1,1.8040435E0,5.505089E1,5.8286266E1,1.4079938E2,6.896226E1,5.8480673E0,2.10208E1,8.850882E1,4.0950058E2,4.320215E0,3.3340876E0,2.01477E0,1.9204512E1],"tree_param":{"num_deleted":"0","num_feature":"20","num_nodes":"31","size_leaf_vector":"1"}},{"base_weights":[8.133032E-3,-1.1498085E-1,2.3439448E-1,-1.6902655E-1,7.730701E-1,3.1210387E-1,-1.2734859E0,3.6838347E-1,-2.3988155E-1,1.3534638E0,-3.5907176E-1,-7.402651E-1,4.435254E-1,-0E0,-1.3708484E0,2.2694698E-2,-5.8217544E-2,-2.1712938E-2,-2.756714E-3,2.0543521E-2,7.590342E-2,-3.3787034E-2,4.8931092E-2,4.2214982E-2,-4.449921E-2,3.5184816E-2,6.1550207E-4,-7.1057744E-2,-1.260521E-2],"categories":[],"categories_nodes":[],"categories_segments":[],"categories_sizes":[],"default_left":[0,0,0,0,0,0,0,0,0,0,0,0,0,0,0,0,0,0,0,0,0,0,0,0,0,0,0,0,0],"id":7,"left_children":[1,3,5,7,9,11,13,15,17,19,21,23,25,-1,27,-1,-1,-1,-1,-1,-1,-1,-1,-1,-1,-1,-1,-1,-1],"loss_changes":[2.811586E1,3.141798E1,4.199205E1,2.3554474E1,2.5254025E1,4.7214573E1,2.1019974E0,9.90142E0,1.951792E1,3.0757484E0,6.330776E0,9.759209E0,3.383169E1,0E0,3.9077377E-1,0E0,0E0,0E0,0E0,0E0,0E0,0E0,0E0,0E0,0E0,0E0,0E0,0E0,0E0],"parents":[2147483647,0,0,1,1,2,2,3,3,4,4,5,5,6,6,7,7,8,8,9,9,10,10,11,11,12,12,14,14],"right_children":[2,4,6,8,10,12,14,16,18,20,22,24,26,-1,28,-1,-1,-1,-1,-1,-1,-1,-1,-1,-1,-1,-1,-1,-1],"split_conditions":[1.096E0,6.5E0,6.5E0,-3.493691E-1,9.46E-1,-3.493691E-1,1.118E0,1.082E0,8.94E-1,1.15E0,1.88E0,3.6289504E-1,3.8495058E-1,-0E0,1.33E1,2.2694698E-2,-5.8217544E-2,-2.1712938E-2,-2.756714E-3,2.0543521E-2,7.590342E-2,-3.3787034E-2,4.8931092E-2,4.2214982E-2,-4.449921E-2,3.5184816E-2,6.1550207E-4,-7.1057744E-2,-1.260521E-2],"split_indices":[6,14,14,19,6,19,6,6,6,2,5,8,19,0,4,0,0,0,0,0,0,0,0,0,0,0,0,0,0],"split_type":[0,0,0,0,0,0,0,0,0,0,0,0,0,0,0,0,0,0,0,0,0,0,0,0,0,0,0,0,0],"sum_hessian":[1.0069353E3,6.521408E2,3.5479446E2,6.155985E2,3.6542305E1,3.382233E2,1.6571173E1,7.105571E1,5.445428E2,2.4086946E1,1.2455359E1,3.694994E1,3.0127335E2,1.2887541E0,1.5282418E1,6.802949E1,3.026223E0,2.644337E2,2.8010913E2,4.191028E0,1.9895918E1,1.05317955E1,1.9235638E0,2.731694E0,3.4218246E1,1.8736446E2,1.1390889E2,1.4280567E1,1.0018511E0],"tree_param":{"num_deleted":"0","num_feature":"20","num_nodes":"29","size_leaf_vector":"1"}},{"base_weights":[-1.2600971E-2,-1.4705855E-1,2.3181163E-1,3.725024E-1,-2.1185455E-1,3.0742505E-1,-1.1908131E0,-6.84988E-1,5.0673985E-1,-2.630464E-1,6.173307E-1,-9.582778E-1,3.8429374E-1,1.7941928E-2,-1.3404187E0,1.6345337E-2,-5.4769494E-2,3.453274E-2,-8.081113E-3,-1.8558046E-2,2.8840636E-3,5.869869E-2,-1.8210584E-2,-0E0,-5.6855477E-2,4.927709E-2,1.2700406E-2,-6.934258E-2,-1.8411096E-2],"categories":[],"categories_nodes":[],"categories_segments":[],"categories_sizes":[],"default_left":[0,0,0,0,0,0,0,0,0,0,0,0,0,0,0,0,0,0,0,0,0,0,0,0,0,0,0,0,0],"id":8,"left_children":[1,3,5,7,9,11,13,15,17,19,21,23,25,-1,27,-1,-1,-1,-1,-1,-1,-1,-1,-1,-1,-1,-1,-1,-1],"loss_changes":[3.3010345E1,2.1890602E1,3.860782E1,1.05622E1,2.463133E1,3.3313263E1,4.780426E0,3.948697E0,8.108295E0,1.8934612E1,1.8950157E1,3.3351097E0,2.47375E1,0E0,7.203865E-2,0E0,0E0,0E0,0E0,0E0,0E0,0E0,0E0,0E0,0E0,0E0,0E0,0E0,0E0],"parents":[2147483647,0,0,1,1,2,2,3,3,4,4,5,5,6,6,7,7,8,8,9,9,10,10,11,11,12,12,14,14],"right_children":[2,4,6,8,10,12,14,16,18,20,22,24,26,-1,28,-1,-1,-1,-1,-1,-1,-1,-1,-1,-1,-1,-1,-1,-1],"split_conditions":[1.09E0,-1.0033E4,6.5E0,1.07E0,6.5E0,3.98E0,1.116E0,-2.0374538E-2,9.95E-1,1.854E0,9.41E-1,2.7E0,3.8833334E0,1.7941928E-2,1.32E1,1.6345337E-2,-5.4769494E-2,3.453274E-2,-8.081113E-3,-1.8558046E-2,2.8840636E-3,5.869869E-2,-1.8210584E-2,-0E0,-5.6855477E-2,4.927709E-2,1.2700406E-2,-6.934258E-2,-1.8411096E-2],"split_indices":[6,17,14,2,14,14,6,12,6,16,6,4,15,0,4,0,0,0,0,0,0,0,0,0,0,0,0,0,0],"split_type":[0,0,0,0,0,0,0,0,0,0,0,0,0,0,0,0,0,0,0,0,0,0,0,0,0,0,0,0,0],"sum_hessian":[1.00270026E3,6.4737195E2,3.5532828E2,7.108568E1,5.7628625E2,3.3820657E2,1.7121706E1,7.461109E0,6.3624573E1,5.4353326E2,3.275304E1,1.8632961E1,3.195736E2,1.3254439E0,1.5796263E1,2.1412888E0,5.3198204E0,4.9986046E1,1.3638525E1,4.066198E2,1.3691342E2,2.0840181E1,1.1912858E1,3.1103854E0,1.5522575E1,5.561001E1,2.6396362E2,1.4570967E1,1.2252954E0],"tree_param":{"num_deleted":"0","num_feature":"20","num_nodes":"29","size_leaf_vector":"1"}},{"base_weights":[-2.444591E-3,-1.7247272E-1,1.564734E-1,2.1510437E-1,-3.588664E-1,-3.2973906E-1,3.3375666E-1,-3.1086475E-1,6.177694E-1,-7.3092234E-1,-1.8550915E-1,4.2817116E-1,-5.730901E-1,9.0142107E-1,1.0661524E-1,-2.0715404E-2,6.0895294E-2,6.187246E-2,2.0123383E-2,-5.9221834E-2,-1.3482845E-2,1.1307789E-2,-2.0101497E-2,-1.956795E-2,3.0079324E-2,-4.4411304E-3,-3.7129506E-2,3.4278017E-2,6.791484E-2,-1.7109854E-2,2.0428112E-2],"categories":[],"categories_nodes":[],"categories_segments":[],"categories_sizes":[],"default_left":[0,0,0,0,0,0,0,0,0,0,0,0,0,0,0,0,0,0,0,0,0,0,0,0,0,0,0,0,0,0,0],"id":9,"left_children":[1,3,5,7,9,11,13,15,17,19,21,23,25,27,29,-1,-1,-1,-1,-1,-1,-1,-1,-1,-1,-1,-1,-1,-1,-1,-1],"loss_changes":[2.701404E1,3.500357E1,4.4625927E1,3.3555954E1,2.0855839E1,2.5775433E1,4.8683605E1,1.1304781E1,1.1290337E1,2.1159817E1,2.0119427E1,5.102119E0,8.489868E0,9.5233E0,3.70094E1,0E0,0E0,0E0,0E0,0E0,0E0,0E0,0E0,0E0,0E0,0E0,0E0,0E0,0E0,0E0,0E0],"parents":[2147483647,0,0,1,1,2,2,3,3,4,4,5,5,6,6,7,7,8,8,9,9,10,10,11,11,12,12,13,13,14,14],"right_children":[2,4,6,8,10,12,14,16,18,20,22,24,26,28,30,-1,-1,-1,-1,-1,-1,-1,-1,-1,-1,-1,-1,-1,-1,-1,-1],"split_conditions":[9.88E-1,-5.917E3,1.476E0,4.183257E-1,8.212E3,3.7615716E-1,1.627E0,5.2196765E-1,7.7E-1,8.39E-1,1.184E4,6.3E-1,1.079E0,1.21E0,4.06E0,-2.0715404E-2,6.0895294E-2,6.187246E-2,2.0123383E-2,-5.9221834E-2,-1.3482845E-2,1.1307789E-2,-2.0101497E-2,-1.956795E-2,3.0079324E-2,-4.4411304E-3,-3.7129506E-2,3.4278017E-2,6.791484E-2,-1.7109854E-2,2.0428112E-2],"split_indices":[6,17,16,8,17,8,16,11,6,6,17,5,6,6,14,0,0,0,0,0,0,0,0,0,0,0,0,0,0,0,0],"split_type":[0,0,0,0,0,0,0,0,0,0,0,0,0,0,0,0,0,0,0,0,0,0,0,0,0,0,0,0,0,0,0],"sum_hessian":[9.9770197E2,4.822651E2,5.154368E2,1.5638853E2,3.2587656E2,1.3734204E2,3.780948E2,6.78028E1,8.858574E1,1.0237283E2,2.2350374E2,3.3095764E1,1.04246284E2,1.0707861E2,2.7101617E2,6.424979E1,3.5530174E0,2.1498102E1,6.708764E1,5.072027E1,5.165256E1,7.686193E1,1.466418E2,5.459887E0,2.7635878E1,2.7575665E1,7.6670616E1,7.456718E1,3.2511433E1,1.0881286E2,1.6220331E2],"tree_param":{"num_deleted":"0","num_feature":"20","num_nodes":"31","size_leaf_vector":"1"}},{"base_weights":[1.4632787E-2,-8.819304E-2,2.0412734E-1,1.955284E-1,-2.1841332E-1,-7.576447E-1,3.2010368E-1,2.590472E-1,-1.2599784E0,-4.8453438E-1,-3.911846E-2,5.926032E-1,-8.595491E-1,6.127099E-1,-1.22230634E-1,2.430174E-2,-9.395578E-3,-1.4339498E-2,-7.108856E-2,-5.0468285E-2,-1.2018337E-2,2.011512E-2,-7.3187198E-3,-0E0,4.589195E-2,-2.0186504E-2,-5.7344407E-2,1.0321514E-2,3.908119E-2,1.4938551E-3,-5.9784144E-2],"categories":[],"categories_nodes":[],"categories_segments":[],"categories_sizes":[],"default_left":[0,0,0,0,0,0,0,0,0,0,0,0,0,0,0,0,0,0,0,0,0,0,0,0,0,0,0,0,0,0,0],"id":10,"left_children":[1,3,5,7,9,11,13,15,17,19,21,23,25,27,29,-1,-1,-1,-1,-1,-1,-1,-1,-1,-1,-1,-1,-1,-1,-1,-1],"loss_changes":[1.92377E1,2.3668049E1,3.894914E1,1.8848827E1,2.0873287E1,5.708069E0,4.0352684E1,1.979323E1,7.640972E-1,2.2235447E1,1.2512317E1,6.6710854E-1,4.022003E0,1.2598419E1,2.0471624E1,0E0,0E0,0E0,0E0,0E0,0E0,0E0,0E0,0E0,0E0,0E0,0E0,0E0,0E0,0E0,0E0],"parents":[2147483647,0,0,1,1,2,2,3,3,4,4,5,5,6,6,7,7,8,8,9,9,10,10,11,11,12,12,13,13,14,14],"right_children":[2,4,6,8,10,12,14,16,18,20,22,24,26,28,30,-1,-1,-1,-1,-1,-1,-1,-1,-1,-1,-1,-1,-1,-1,-1,-1],"split_conditions":[1.091E0,-5.917E3,-1.0033E4,1.081E0,8.61E-1,3.543814E-1,7.263799E-1,4.9333334E0,-9.390617E-1,8.212E3,-2.520984E-1,-1.7732749E0,1.184E0,1.156E0,4.84E0,2.430174E-2,-9.395578E-3,-1.4339498E-2,-7.108856E-2,-5.0468285E-2,-1.2018337E-2,2.011512E-2,-7.3187198E-3,-0E0,4.589195E-2,-2.0186504E-2,-5.7344407E-2,1.0321514E-2,3.908119E-2,1.4938551E-3,-5.9784144E-2],"split_indices":[6,17,17,6,6,8,7,15,7,17,11,7,6,6,15,0,0,0,0,0,0,0,0,0,0,0,0,0,0,0,0],"split_type":[0,0,0,0,0,0,0,0,0,0,0,0,0,0,0,0,0,0,0,0,0,0,0,0,0,0,0,0,0,0,0],"sum_hessian":[9.8479266E2,6.3838916E2,3.4640356E2,2.0042896E2,4.3796017E2,3.658827E1,3.0981528E2,1.929014E2,7.527556E0,1.7538388E2,2.6257632E2,2.1607964E0,3.442747E1,1.8637094E2,1.2344434E2,1.2802191E2,6.4879486E1,1.5564015E0,5.971154E0,5.4561672E1,1.20822205E2,5.06087E1,2.119676E2,1.051285E0,1.1095114E0,1.4375712E1,2.005176E1,5.555693E1,1.3081401E2,1.0889323E2,1.4551114E1],"tree_param":{"num_deleted":"0","num_feature":"20","num_nodes":"31","size_leaf_vector":"1"}},{"base_weights":[9.905008E-3,-8.56084E-2,1.8639383E-1,-1.3290764E-1,7.4318105E-1,-3.9483202E-1,3.9604887E-1,3.0711704E-1,-1.925482E-1,1.2893511E0,-2.722368E-1,3.41075E-1,-6.409888E-1,7.7607983E-1,-1.0599353E-1,4.222265E-2,4.560889E-3,-2.0060768E-2,-3.2346782E-3,2.0186339E-2,6.945022E-2,2.1481947E-3,-6.2928095E-2,3.6758274E-2,-9.114632E-3,-2.3537237E-2,-5.6899227E-2,4.893586E-2,6.771797E-3,-2.5557378E-2,1.5607582E-2],"categories":[],"categories_nodes":[],"categories_segments":[],"categories_sizes":[],"default_left":[0,0,0,0,0,0,0,0,0,0,0,0,0,0,0,0,0,0,0,0,0,0,0,0,0,0,0,0,0,0,0],"id":11,"left_children":[1,3,5,7,9,11,13,15,17,19,21,23,25,27,29,-1,-1,-1,-1,-1,-1,-1,-1,-1,-1,-1,-1,-1,-1,-1,-1],"loss_changes":[1.6715395E1,2.5232838E1,4.2603973E1,1.6029247E1,1.9717596E1,1.7043913E1,4.9110806E1,8.283467E0,1.4256872E1,1.2744751E0,4.189548E0,5.0961466E0,5.2198544E0,1.8747627E1,1.904014E1,0E0,0E0,0E0,0E0,0E0,0E0,0E0,0E0,0E0,0E0,0E0,0E0,0E0,0E0,0E0,0E0],"parents":[2147483647,0,0,1,1,2,2,3,3,4,4,5,5,6,6,7,7,8,8,9,9,10,10,11,11,12,12,13,13,14,14],"right_children":[2,4,6,8,10,12,14,16,18,20,22,24,26,28,30,-1,-1,-1,-1,-1,-1,-1,-1,-1,-1,-1,-1,-1,-1,-1,-1],"split_conditions":[1.09E0,6.5E0,1.476E0,-1.0033E4,9.41E-1,3.6289504E-1,1.716E0,7.97E-1,8.4E-1,1.09E0,1.86E0,1.64E0,6.35E0,1.5395E4,1.0711156E0,4.222265E-2,4.560889E-3,-2.0060768E-2,-3.2346782E-3,2.0186339E-2,6.945022E-2,2.1481947E-3,-6.2928095E-2,3.6758274E-2,-9.114632E-3,-2.3537237E-2,-5.6899227E-2,4.893586E-2,6.771797E-3,-2.5557378E-2,1.5607582E-2],"split_indices":[6,14,16,17,6,8,16,6,6,2,2,2,14,17,7,0,0,0,0,0,0,0,0,0,0,0,0,0,0,0,0],"split_type":[0,0,0,0,0,0,0,0,0,0,0,0,0,0,0,0,0,0,0,0,0,0,0,0,0,0,0,0,0,0,0],"sum_hessian":[9.8905237E2,6.4171375E2,3.4733862E2,6.079766E2,3.37371E1,9.171561E1,2.5562303E2,7.187331E1,5.3610333E2,2.1826065E1,1.1911034E1,2.2790274E1,6.892533E1,1.4529353E2,1.1032949E2,1.9633762E1,5.2239548E1,2.0257213E2,3.3353122E2,2.819937E0,1.9006128E1,9.674424E0,2.2366095E0,1.2878947E1,9.911327E0,5.2939487E1,1.5985846E1,1.0986055E2,3.5432983E1,5.604371E1,5.4285778E1],"tree_param":{"num_deleted":"0","num_feature":"20","num_nodes":"31","size_leaf_vector":"1"}},{"base_weights":[1.2131595E-2,-1.1861093E-1,1.3639405E-1,-1.8190199E-1,1.006482E0,-2.794986E-1,2.8386882E-1,-6.968737E-1,-7.656612E-2,1.1398466E0,-1.03370965E-1,3.1008106E-1,-6.4350134E-1,8.090699E-1,7.31347E-2,-4.8707675E-2,7.3206127E-3,1.903422E-2,-9.799012E-3,1.817558E-3,6.565673E-2,5.129653E-2,-5.3136688E-2,3.697563E-2,4.26004E-4,-2.0751638E-2,-4.937817E-2,3.0515179E-2,6.564423E-2,-4.2361945E-2,8.596577E-3],"categories":[],"categories_nodes":[],"categories_segments":[],"categories_sizes":[],"default_left":[0,0,0,0,0,0,0,0,0,0,0,0,0,0,0,0,0,0,0,0,0,0,0,0,0,0,0,0,0,0,0],"id":12,"left_children":[1,3,5,7,9,11,13,15,17,19,21,23,25,27,29,-1,-1,-1,-1,-1,-1,-1,-1,-1,-1,-1,-1,-1,-1,-1,-1],"loss_changes":[1.6117884E1,3.4497368E1,3.1294998E1,2.472702E1,4.0395107E0,2.889466E1,4.151032E1,1.835434E1,2.0898733E1,4.2520313E0,4.9980726E0,6.594644E0,5.974556E0,9.775902E0,2.46151E1,0E0,0E0,0E0,0E0,0E0,0E0,0E0,0E0,0E0,0E0,0E0,0E0,0E0,0E0,0E0,0E0],"parents":[2147483647,0,0,1,1,2,2,3,3,4,4,5,5,6,6,7,7,8,8,9,9,10,10,11,11,12,12,13,13,14,14],"right_children":[2,4,6,8,10,12,14,16,18,20,22,24,26,28,30,-1,-1,-1,-1,-1,-1,-1,-1,-1,-1,-1,-1,-1,-1,-1,-1],"split_conditions":[9.88E-1,6.5E0,1.476E0,3.8833334E0,9.46E-1,-2.7035332E-1,1.627E0,9.22E-1,4.02E0,1.15E0,9.8639375E-1,-5.7937694E-1,2.8507443E-2,1.223E0,3.98E0,-4.8707675E-2,7.3206127E-3,1.903422E-2,-9.799012E-3,1.817558E-3,6.565673E-2,5.129653E-2,-5.3136688E-2,3.697563E-2,4.26004E-4,-2.0751638E-2,-4.937817E-2,3.0515179E-2,6.564423E-2,-4.2361945E-2,8.596577E-3],"split_indices":[6,14,16,15,6,7,16,6,14,2,9,10,12,6,14,0,0,0,0,0,0,0,0,0,0,0,0,0,0,0,0],"split_type":[0,0,0,0,0,0,0,0,0,0,0,0,0,0,0,0,0,0,0,0,0,0,0,0,0,0,0,0,0,0,0],"sum_hessian":[9.89985E2,4.8204398E2,5.0794104E2,4.5724905E2,2.4794912E1,1.3255374E2,3.753873E2,7.6531685E1,3.8071738E2,2.2191381E1,2.603531E0,5.0550262E1,8.200348E1,1.0654277E2,2.688445E2,5.756666E1,1.8965025E1,7.8211426E1,3.0250595E2,3.2543807E0,1.8937002E1,1.1161022E0,1.4874287E0,2.0117905E1,3.043236E1,5.0780487E1,3.122299E1,7.812896E1,2.8413807E1,2.5228899E1,2.4361563E2],"tree_param":{"num_deleted":"0","num_feature":"20","num_nodes":"31","size_leaf_vector":"1"}},{"base_weights":[-1.1362242E-2,-1.1071228E-1,1.6948107E-1,-1.4856865E-1,5.988695E-1,-3.2973525E-1,3.3963755E-1,-2.4892555E-1,5.034967E-2,1.1677752E0,-4.8373532E-1,4.081773E-1,-5.59227E-1,6.952651E-1,-1.4084965E-1,-2.2524524E-2,1.0459555E-3,8.898702E-3,-2.678712E-2,1.2659065E-2,6.345549E-2,-6.3822004E-3,-6.362648E-2,3.8408957E-2,-2.2552468E-2,-3.1010574E-2,4.457849E-2,4.62889E-2,3.4940845E-4,8.835121E-3,-2.894232E-2],"categories":[],"categories_nodes":[],"categories_segments":[],"categories_sizes":[],"default_left":[0,0,0,0,0,0,0,0,0,0,0,0,0,0,0,0,0,0,0,0,0,0,0,0,0,0,0,0,0,0,0],"id":13,"left_children":[1,3,5,7,9,11,13,15,17,19,21,23,25,27,29,-1,-1,-1,-1,-1,-1,-1,-1,-1,-1,-1,-1,-1,-1,-1,-1],"loss_changes":[1.7741308E1,1.7177238E1,2.9836105E1,1.2138898E1,2.0569668E1,1.5366929E1,4.4854897E1,2.2004206E1,1.5308321E1,1.5257912E0,3.011142E0,7.078239E0,6.5993576E0,2.379766E1,1.5717581E1,0E0,0E0,0E0,0E0,0E0,0E0,0E0,0E0,0E0,0E0,0E0,0E0,0E0,0E0,0E0,0E0],"parents":[2147483647,0,0,1,1,2,2,3,3,4,4,5,5,6,6,7,7,8,8,9,9,10,10,11,11,12,12,13,13,14,14],"right_children":[2,4,6,8,10,12,14,16,18,20,22,24,26,28,30,-1,-1,-1,-1,-1,-1,-1,-1,-1,-1,-1,-1,-1,-1,-1,-1],"split_conditions":[1.09E0,6.5E0,1.476E0,1.716E0,9.46E-1,3.6289504E-1,1.716E0,9.22E-1,1.012E0,6.1E-1,1.4437569E0,7.6610565E0,1.2527381E-1,1.5395E4,8.4420586E-1,-2.2524524E-2,1.0459555E-3,8.898702E-3,-2.678712E-2,1.2659065E-2,6.345549E-2,-6.3822004E-3,-6.362648E-2,3.8408957E-2,-2.2552468E-2,-3.1010574E-2,4.457849E-2,4.62889E-2,3.4940845E-4,8.835121E-3,-2.894232E-2],"split_indices":[6,14,16,16,6,8,16,6,6,0,7,3,12,17,8,0,0,0,0,0,0,0,0,0,0,0,0,0,0,0,0],"split_type":[0,0,0,0,0,0,0,0,0,0,0,0,0,0,0,0,0,0,0,0,0,0,0,0,0,0,0,0,0,0,0],"sum_hessian":[9.857328E2,6.368221E2,3.4891074E2,6.054526E2,3.1369492E1,8.8306305E1,2.6060443E2,4.025913E2,2.028613E2,2.0572435E1,1.0797056E1,2.066032E1,6.764599E1,1.4962337E2,1.1098106E2,2.3028058E2,1.7231073E2,1.6729825E2,3.556304E1,2.4994047E0,1.807303E1,8.326678E0,2.4703777E0,1.4716639E1,5.9436817E0,6.553274E1,2.1132505E0,1.1171741E2,3.7905956E1,6.454995E1,4.6431107E1],"tree_param":{"num_deleted":"0","num_feature":"20","num_nodes":"31","size_leaf_vector":"1"}},{"base_weights":[-8.558175E-3,-9.8810345E-2,1.613448E-1,3.9229655E-1,-1.5782957E-1,2.5179222E-1,-6.3705635E-1,1.0410372E0,1.824214E-1,-2.0805211E-1,2.221265E-1,4.277873E-1,-1.4588952E-1,-1.0508159E0,-7.34926E-2,7.398235E-2,8.644934E-3,-4.9180933E-3,4.040765E-2,-1.4216836E-2,1.0528727E-2,4.3873966E-2,-1.4234818E-2,-2.9744549E-2,2.4805967E-2,4.297453E-2,-1.1991354E-2,1.3705044E-3,-6.109185E-2,-4.2488214E-2,1.4055706E-2],"categories":[],"categories_nodes":[],"categories_segments":[],"categories_sizes":[],"default_left":[0,0,0,0,0,0,0,0,0,0,0,0,0,0,0,0,0,0,0,0,0,0,0,0,0,0,0,0,0,0,0],"id":14,"left_children":[1,3,5,7,9,11,13,15,17,19,21,23,25,27,29,-1,-1,-1,-1,-1,-1,-1,-1,-1,-1,-1,-1,-1,-1,-1,-1],"loss_changes":[1.5155963E1,1.8765163E1,2.4866682E1,9.139515E0,1.1068084E1,2.169114E1,7.9808283E0,5.9148273E0,9.5993185E0,1.638514E1,2.2793135E1,1.5265865E1,9.140055E0,3.846016E0,4.703333E0,0E0,0E0,0E0,0E0,0E0,0E0,0E0,0E0,0E0,0E0,0E0,0E0,0E0,0E0,0E0,0E0],"parents":[2147483647,0,0,1,1,2,2,3,3,4,4,5,5,6,6,7,7,8,8,9,9,10,10,11,11,12,12,13,13,14,14],"right_children":[2,4,6,8,10,12,14,16,18,20,22,24,26,28,30,-1,-1,-1,-1,-1,-1,-1,-1,-1,-1,-1,-1,-1,-1,-1,-1],"split_conditions":[1.096E0,-3.493691E-1,2.6755E4,7.4973315E-1,2.6755E4,-5.6207336E-2,6.5919757E-1,4.665932E-2,6.5E-1,1.0127236E0,8.63E-1,-3.493691E-1,3.7233334E0,-5.7527363E-1,4.7E-1,7.398235E-2,8.644934E-3,-4.9180933E-3,4.040765E-2,-1.4216836E-2,1.0528727E-2,4.3873966E-2,-1.4234818E-2,-2.9744549E-2,2.4805967E-2,4.297453E-2,-1.1991354E-2,1.3705044E-3,-6.109185E-2,-4.2488214E-2,1.4055706E-2],"split_indices":[6,19,18,9,18,11,8,12,1,9,6,19,15,11,1,0,0,0,0,0,0,0,0,0,0,0,0,0,0,0,0],"split_type":[0,0,0,0,0,0,0,0,0,0,0,0,0,0,0,0,0,0,0,0,0,0,0,0,0,0,0,0,0,0,0],"sum_hessian":[9.8675037E2,6.450878E2,3.4166254E2,6.841941E1,5.766684E2,3.076231E2,3.4039413E1,1.5639559E1,5.277985E1,5.0997552E2,6.669288E1,2.1337099E2,9.425213E1,1.902761E1,1.5011805E1,9.845657E0,5.7939014E0,3.6903297E1,1.5876551E1,4.3184232E2,7.8133194E1,2.8851765E1,3.7841114E1,1.2789533E1,2.0058145E2,7.2665625E0,8.6985565E1,2.6397772E0,1.6387833E1,4.357789E0,1.0654016E1],"tree_param":{"num_deleted":"0","num_feature":"20","num_nodes":"31","size_leaf_vector":"1"}},{"base_weights":[9.7817285E-3,-1.302392E-1,8.964335E-2,-8.242724E-1,-3.3061744E-3,5.738759E-1,-0E0,-1.1750132E0,-1.1582441E-1,-4.5756802E-1,1.6791558E-1,2.8282055E-1,1.0524116E0,4.566068E-2,-4.474763E-1,-6.106628E-2,8.134852E-3,-3.1832285E-2,4.944612E-3,-4.3698805E-3,-3.3641107E-2,2.112775E-2,-1.5072788E-2,2.5796354E-2,-1.0210231E-2,6.443786E-2,3.4538276E-2,4.430863E-3,-2.7226508E-2,-7.407074E-3,-4.960718E-2],"categories":[],"categories_nodes":[],"categories_segments":[],"categories_sizes":[],"default_left":[0,0,0,0,0,0,0,0,0,0,0,0,0,0,0,0,0,0,0,0,0,0,0,0,0,0,0,0,0,0,0],"id":15,"left_children":[1,3,5,7,9,11,13,15,17,19,21,23,25,27,29,-1,-1,-1,-1,-1,-1,-1,-1,-1,-1,-1,-1,-1,-1,-1,-1],"loss_changes":[1.10027E1,3.1371164E1,2.726142E1,1.3421875E1,2.3672264E1,1.3229614E1,1.087706E1,2.57444E0,2.2911296E0,6.508148E0,2.650818E1,7.230351E0,2.039833E0,1.2217497E1,7.7775545E0,0E0,0E0,0E0,0E0,0E0,0E0,0E0,0E0,0E0,0E0,0E0,0E0,0E0,0E0,0E0,0E0],"parents":[2147483647,0,0,1,1,2,2,3,3,4,4,5,5,6,6,7,7,8,8,9,9,10,10,11,11,12,12,13,13,14,14],"right_children":[2,4,6,8,10,12,14,16,18,20,22,24,26,28,30,-1,-1,-1,-1,-1,-1,-1,-1,-1,-1,-1,-1,-1,-1,-1,-1],"split_conditions":[9.2E-1,3.8833334E0,3.8833334E0,6.25E0,3.8210067E-1,1.166E0,9.498869E-1,9.11E-1,7.53E-1,1.21E0,1.184E4,6.25E0,1.67E0,6.5E0,1.19E0,-6.106628E-2,8.134852E-3,-3.1832285E-2,4.944612E-3,-4.3698805E-3,-3.3641107E-2,2.112775E-2,-1.5072788E-2,2.5796354E-2,-1.0210231E-2,6.443786E-2,3.4538276E-2,4.430863E-3,-2.7226508E-2,-7.407074E-3,-4.960718E-2],"split_indices":[6,15,15,14,8,6,8,6,6,5,17,14,5,14,6,0,0,0,0,0,0,0,0,0,0,0,0,0,0,0,0],"split_type":[0,0,0,0,0,0,0,0,0,0,0,0,0,0,0,0,0,0,0,0,0,0,0,0,0,0,0,0,0,0,0],"sum_hessian":[9.8225793E2,3.5607343E2,6.261845E2,5.4082783E1,3.0199066E2,9.7081184E1,5.2910333E2,3.5638855E1,1.844393E1,8.23699E1,2.1962074E2,6.1484818E1,3.5596367E1,4.8079846E2,4.830486E1,3.4602646E1,1.0362103E0,4.946434E0,1.3497496E1,3.0974293E1,5.139561E1,1.4258145E2,7.703929E1,4.168092E1,1.9803898E1,1.9809935E1,1.5786432E1,4.491283E2,3.1670166E1,3.2112343E1,1.6192516E1],"tree_param":{"num_deleted":"0","num_feature":"20","num_nodes":"31","size_leaf_vector":"1"}},{"base_weights":[6.810538E-3,-7.503523E-2,1.6073033E-1,-1.1643437E-1,6.8901914E-1,2.1837944E-1,-9.642911E-1,2.8589812E-1,-1.7043951E-1,1.1703346E0,-1.6678953E-1,-8.656465E-1,2.82988E-1,4.76083E-3,-1.0605987E0,-2.6383353E-2,1.9856336E-2,-1.8426714E-2,-2.5413071E-3,1.2144377E-2,5.9970647E-2,3.7896235E-2,-3.480105E-2,-1.3010551E-2,-6.225555E-2,2.5644055E-2,4.7773025E-3,-5.556182E-2,-7.5161904E-3],"categories":[],"categories_nodes":[],"categories_segments":[],"categories_sizes":[],"default_left":[0,0,0,0,0,0,0,0,0,0,0,0,0,0,0,0,0,0,0,0,0,0,0,0,0,0,0,0,0],"id":16,"left_children":[1,3,5,7,9,11,13,15,17,19,21,23,25,-1,27,-1,-1,-1,-1,-1,-1,-1,-1,-1,-1,-1,-1,-1,-1],"loss_changes":[1.2299439E1,2.0158863E1,2.2129093E1,1.3179238E1,1.3781565E1,2.2842014E1,1.894393E0,6.6878633E0,1.2594933E1,1.3494873E-1,6.6805944E0,3.7421837E0,1.3081373E1,0E0,4.1724777E-1,0E0,0E0,0E0,0E0,0E0,0E0,0E0,0E0,0E0,0E0,0E0,0E0,0E0,0E0],"parents":[2147483647,0,0,1,1,2,2,3,3,4,4,5,5,6,6,7,7,8,8,9,9,10,10,11,11,12,12,14,14],"right_children":[2,4,6,8,10,12,14,16,18,20,22,24,26,-1,28,-1,-1,-1,-1,-1,-1,-1,-1,-1,-1,-1,-1,-1,-1],"split_conditions":[1.091E0,6.5E0,6.5E0,-1.0033E4,9.46E-1,3.98E0,1.118E0,1.07E0,8.4E-1,9.8E-1,4.7E-1,1.18E0,6.8810534E-1,4.76083E-3,2.08E0,-2.6383353E-2,1.9856336E-2,-1.8426714E-2,-2.5413071E-3,1.2144377E-2,5.9970647E-2,3.7896235E-2,-3.480105E-2,-1.3010551E-2,-6.225555E-2,2.5644055E-2,4.7773025E-3,-5.556182E-2,-7.5161904E-3],"split_indices":[6,14,14,17,6,14,6,2,6,2,1,6,7,0,2,0,0,0,0,0,0,0,0,0,0,0,0,0,0],"split_type":[0,0,0,0,0,0,0,0,0,0,0,0,0,0,0,0,0,0,0,0,0,0,0,0,0,0,0,0,0],"sum_hessian":[9.7368774E2,6.355835E2,3.3810425E2,6.038436E2,3.1739874E1,3.2247458E2,1.562968E1,7.073439E1,5.3310925E2,2.015425E1,1.1585625E1,1.735416E1,3.051204E2,1.2167581E0,1.4412921E1,7.949067E0,6.2785324E1,1.996111E2,3.3349817E2,1.001561E0,1.9152687E1,3.99106E0,7.594565E0,7.437267E0,9.916894E0,1.3602245E2,1.6909796E2,1.3340193E1,1.0727284E0],"tree_param":{"num_deleted":"0","num_feature":"20","num_nodes":"29","size_leaf_vector":"1"}},{"base_weights":[-4.704428E-3,-7.411276E-2,2.0889866E-1,2.627424E-1,-1.1275206E-1,-3.34963E-1,3.9414117E-1,6.536187E-1,-4.438181E-2,-4.618943E-1,-6.850924E-2,5.600704E-1,-6.0318977E-1,7.8521955E-1,-1.4132793E-1,-3.2736901E-3,4.0896025E-2,-5.373103E-2,6.6575515E-3,-5.2375298E-2,-2.1847459E-3,3.2406864E-3,-7.33815E-3,5.7638027E-2,-1.1806095E-2,-5.4410446E-2,-1.5623162E-2,4.7202222E-2,-1.8958775E-2,-2.8360883E-2,1.2852566E-2],"categories":[],"categories_nodes":[],"categories_segments":[],"categories_sizes":[],"default_left":[0,0,0,0,0,0,0,0,0,0,0,0,0,0,0,0,0,0,0,0,0,0,0,0,0,0,0,0,0,0,0],"id":17,"left_children":[1,3,5,7,9,11,13,15,17,19,21,23,25,27,29,-1,-1,-1,-1,-1,-1,-1,-1,-1,-1,-1,-1,-1,-1,-1,-1],"loss_changes":[1.4372791E1,9.551036E0,2.407832E1,9.144905E0,1.0083304E1,1.4933199E1,3.741953E1,4.074438E0,8.107932E0,1.7870628E1,6.1277637E0,7.181255E0,6.1939564E0,1.9471016E1,1.3038794E1,0E0,0E0,0E0,0E0,0E0,0E0,0E0,0E0,0E0,0E0,0E0,0E0,0E0,0E0,0E0,0E0],"parents":[2147483647,0,0,1,1,2,2,3,3,4,4,5,5,6,6,7,7,8,8,9,9,10,10,11,11,12,12,13,13,14,14],"right_children":[2,4,6,8,10,12,14,16,18,20,22,24,26,28,30,-1,-1,-1,-1,-1,-1,-1,-1,-1,-1,-1,-1,-1,-1,-1,-1],"split_conditions":[1.156E0,-1.0033E4,1.476E0,8.92E-1,7.4E-1,3.3458117E-1,1.716E0,3.1532612E-1,6.4E-1,5.2431417E-1,-3.44668E-1,-7.2719014E-1,6.4785094E0,1.9999E4,4.02E0,-3.2736901E-3,4.0896025E-2,-5.373103E-2,6.6575515E-3,-5.2375298E-2,-2.1847459E-3,3.2406864E-3,-7.33815E-3,5.7638027E-2,-1.1806095E-2,-5.4410446E-2,-1.5623162E-2,4.7202222E-2,-1.8958775E-2,-2.8360883E-2,1.2852566E-2],"split_indices":[6,17,16,6,6,8,16,8,0,7,10,7,3,17,14,0,0,0,0,0,0,0,0,0,0,0,0,0,0,0,0],"split_type":[0,0,0,0,0,0,0,0,0,0,0,0,0,0,0,0,0,0,0,0,0,0,0,0,0,0,0,0,0,0,0],"sum_hessian":[9.6830725E2,7.316769E2,2.3663039E2,7.442821E1,6.5724866E2,5.9777863E1,1.7685252E2,3.239569E1,4.2032513E1,7.260285E1,5.846458E2,1.3446846E1,4.6331017E1,1.02044754E2,7.480776E1,6.0239234E0,2.6371767E1,5.5184803E0,3.6514034E1,2.9520657E1,4.3082195E1,2.1582794E2,3.6881787E2,7.523824E0,5.923022E0,1.6206566E1,3.012445E1,9.003851E1,1.2006242E1,3.607199E1,3.873577E1],"tree_param":{"num_deleted":"0","num_feature":"20","num_nodes":"31","size_leaf_vector":"1"}},{"base_weights":[1.3313211E-2,-7.753734E-2,1.8133609E-1,1.853029E-1,-1.7424667E-1,-5.5509657E-1,2.6891834E-1,2.6291466E-1,-8.7251884E-1,-5.41289E-1,2.6117936E-2,7.945091E-1,-6.628143E-1,-2.1426627E-1,4.1988593E-1,6.282478E-3,4.047967E-2,1.5508368E-2,-6.300291E-2,-4.6447232E-2,7.677663E-3,1.3143323E-2,-1.0187581E-2,3.937943E-3,5.284303E-2,-7.63044E-3,-5.2336562E-2,2.9833296E-2,-2.395282E-2,3.1623486E-2,-2.761192E-3],"categories":[],"categories_nodes":[],"categories_segments":[],"categories_sizes":[],"default_left":[0,0,0,0,0,0,0,0,0,0,0,0,0,0,0,0,0,0,0,0,0,0,0,0,0,0,0,0,0,0,0],"id":18,"left_children":[1,3,5,7,9,11,13,15,17,19,21,23,25,27,29,-1,-1,-1,-1,-1,-1,-1,-1,-1,-1,-1,-1,-1,-1,-1,-1],"loss_changes":[1.5034871E1,1.6262434E1,2.2422901E1,1.4286116E1,3.445308E1,5.886113E0,2.2710613E1,1.1890737E1,5.938921E0,4.4755608E1,1.6562666E1,3.8866723E-1,6.544485E0,1.6220005E1,2.3985493E1,0E0,0E0,0E0,0E0,0E0,0E0,0E0,0E0,0E0,0E0,0E0,0E0,0E0,0E0,0E0,0E0],"parents":[2147483647,0,0,1,1,2,2,3,3,4,4,5,5,6,6,7,7,8,8,9,9,10,10,11,11,12,12,13,13,14,14],"right_children":[2,4,6,8,10,12,14,16,18,20,22,24,26,28,30,-1,-1,-1,-1,-1,-1,-1,-1,-1,-1,-1,-1,-1,-1,-1,-1],"split_conditions":[1.09E0,1.476E0,-1.0033E4,1.074E0,1.636E0,-9.043386E-2,1.476E0,1.47E0,-8.7125117E-1,9.5E-1,9.918111E-1,6.4785094E0,1.184E0,-2.7035332E-1,1.854E0,6.282478E-3,4.047967E-2,1.5508368E-2,-6.300291E-2,-4.6447232E-2,7.677663E-3,1.3143323E-2,-1.0187581E-2,3.937943E-3,5.284303E-2,-7.63044E-3,-5.2336562E-2,2.9833296E-2,-2.395282E-2,3.1623486E-2,-2.761192E-3],"split_indices":[6,16,17,6,16,12,16,16,7,6,9,3,6,7,16,0,0,0,0,0,0,0,0,0,0,0,0,0,0,0,0],"split_type":[0,0,0,0,0,0,0,0,0,0,0,0,0,0,0,0,0,0,0,0,0,0,0,0,0,0,0,0,0,0,0],"sum_hessian":[9.8232513E2,6.375455E2,3.4477966E2,1.7095836E2,4.6658713E2,3.595695E1,3.0882272E2,1.6006079E2,1.0897574E1,1.6433818E2,3.0224893E2,2.1178615E0,3.383909E1,7.326147E1,2.3556125E2,1.2906639E2,3.09944E1,2.675164E0,8.22241E0,1.0536279E2,5.897539E1,1.4904015E2,1.5320879E2,1.0190499E0,1.0988115E0,1.5241678E1,1.8597412E1,1.7631908E1,5.5629562E1,1.6265977E2,7.290146E1],"tree_param":{"num_deleted":"0","num_feature":"20","num_nodes":"31","size_leaf_vector":"1"}},{"base_weights":[-1.0843766E-2,-7.790276E-2,1.958266E-1,1.5202011E-1,-1.5989222E-1,-6.011711E-1,3.0121952E-1,5.217165E-1,-8.5096546E-2,-3.7237337E-1,-4.5824226E-2,3.1240424E-2,-7.160414E-1,6.2590915E-1,-1.1007677E-1,4.04517E-3,4.178123E-2,-0E0,-3.2068055E-2,-3.9292563E-2,1.046347E-2,2.3833437E-2,-5.8655366E-3,5.036181E-3,-4.5537703E-2,3.5822324E-2,-7.156332E-3,-4.06145E-2,6.155799E-3],"categories":[],"categories_nodes":[],"categories_segments":[],"categories_sizes":[],"default_left":[0,0,0,0,0,0,0,0,0,0,0,0,0,0,0,0,0,0,0,0,0,0,0,0,0,0,0,0,0],"id":19,"left_children":[1,3,5,7,9,11,13,15,17,19,21,-1,23,25,27,-1,-1,-1,-1,-1,-1,-1,-1,-1,-1,-1,-1,-1,-1],"loss_changes":[1.3389607E1,1.3792765E1,2.0020103E1,1.6933687E1,1.3009004E1,4.3785048E0,2.8123556E1,1.0273634E1,5.542857E0,4.5409164E1,1.3177824E1,0E0,4.3082895E0,8.338837E0,1.5434286E1,0E0,0E0,0E0,0E0,0E0,0E0,0E0,0E0,0E0,0E0,0E0,0E0,0E0,0E0],"parents":[2147483647,0,0,1,1,2,2,3,3,4,4,5,5,6,6,7,7,8,8,9,9,10,10,12,12,13,13,14,14],"right_children":[2,4,6,8,10,12,14,16,18,20,22,-1,24,26,28,-1,-1,-1,-1,-1,-1,-1,-1,-1,-1,-1,-1,-1,-1],"split_conditions":[1.156E0,1.476E0,-1.0033E4,8.64E-1,1.636E0,-9.043386E-2,7.263799E-1,5.645333E-1,1.5276204E0,9.63E-1,7.4973315E-1,3.1240424E-2,1.184E0,1.9999E4,1.476E0,4.04517E-3,4.178123E-2,-0E0,-3.2068055E-2,-3.9292563E-2,1.046347E-2,2.3833437E-2,-5.8655366E-3,5.036181E-3,-4.5537703E-2,3.5822324E-2,-7.156332E-3,-4.06145E-2,6.155799E-3],"split_indices":[6,16,17,6,16,12,7,7,7,6,9,0,6,17,16,0,0,0,0,0,0,0,0,0,0,0,0,0,0],"split_type":[0,0,0,0,0,0,0,0,0,0,0,0,0,0,0,0,0,0,0,0,0,0,0,0,0,0,0,0,0],"sum_hessian":[9.648736E2,7.2933185E2,2.355417E2,1.9116748E2,5.3816437E2,2.6849407E1,2.0869229E2,7.439589E1,1.167716E2,1.8689078E2,3.5127362E2,1.8452936E0,2.5004114E1,1.16469284E2,9.222301E1,3.1598803E1,4.279709E1,1.0222332E2,1.4548279E1,1.0913196E2,7.775882E1,4.142591E1,3.0984772E2,4.8074284E0,2.0196686E1,1.043793E2,1.2089982E1,2.2478624E1,6.9744385E1],"tree_param":{"num_deleted":"0","num_feature":"20","num_nodes":"29","size_leaf_vector":"1"}},{"base_weights":[-8.797215E-3,1.756889E-1,-4.1699022E-2,-1.4095056E-1,3.8405722E-1,3.6490487E-3,-1.8930519E-1,1.5316832E-1,-1.1101848E0,5.459792E-1,-1.5981326E-1,-5.4282088E-2,1.7273688E-1,-4.4263613E-1,-1.6935064E-2,1.668458E-2,-2.688687E-2,-2.2877257E-2,-7.241299E-2,4.0416033E-3,3.497424E-2,-2.021627E-2,4.2012464E-2,-3.5388596E-2,-1.4386271E-3,-2.3348873E-2,1.2278519E-2,-1.2722536E-2,-5.203254E-2,1.07258875E-2,-1.5921695E-2],"categories":[],"categories_nodes":[],"categories_segments":[],"categories_sizes":[],"default_left":[0,0,0,0,0,0,0,0,0,0,0,0,0,0,0,0,0,0,0,0,0,0,0,0,0,0,0,0,0,0,0],"id":20,"left_children":[1,3,5,7,9,11,13,15,17,19,21,23,25,27,29,-1,-1,-1,-1,-1,-1,-1,-1,-1,-1,-1,-1,-1,-1,-1,-1],"loss_changes":[5.883766E0,9.750242E0,5.5397754E0,1.7005468E1,7.9522285E0,6.2057943E0,8.433918E0,5.877681E0,2.2073364E0,4.781515E0,5.4362245E0,7.7506175E0,7.6309547E0,8.431607E0,8.23916E0,0E0,0E0,0E0,0E0,0E0,0E0,0E0,0E0,0E0,0E0,0E0,0E0,0E0,0E0,0E0,0E0],"parents":[2147483647,0,0,1,1,2,2,3,3,4,4,5,5,6,6,7,7,8,8,9,9,10,10,11,11,12,12,13,13,14,14],"right_children":[2,4,6,8,10,12,14,16,18,20,22,24,26,28,30,-1,-1,-1,-1,-1,-1,-1,-1,-1,-1,-1,-1,-1,-1,-1,-1],"split_conditions":[-3.6348647E-1,-1.6459098E-2,6.9234824E-1,1.184E4,6E0,9.9285364E-1,6.776507E0,1.18E1,8.6E-1,9.181748E-1,2.04E0,3.7233334E0,3.98E0,4.84E0,1.7695E4,1.668458E-2,-2.688687E-2,-2.2877257E-2,-7.241299E-2,4.0416033E-3,3.497424E-2,-2.021627E-2,4.2012464E-2,-3.5388596E-2,-1.4386271E-3,-2.3348873E-2,1.2278519E-2,-1.2722536E-2,-5.203254E-2,1.07258875E-2,-1.5921695E-2],"split_indices":[11,12,10,17,14,9,3,4,0,9,5,15,14,15,18,0,0,0,0,0,0,0,0,0,0,0,0,0,0,0,0],"split_type":[0,0,0,0,0,0,0,0,0,0,0,0,0,0,0,0,0,0,0,0,0,0,0,0,0,0,0,0,0,0,0],"sum_hessian":[9.693312E2,1.4559209E2,8.237391E2,5.7721424E1,8.787066E1,6.303719E2,1.933672E2,4.4850204E1,1.287122E1,6.785019E1,2.0020473E1,4.695776E2,1.6079428E2,7.742631E1,1.15940895E2,3.608381E1,8.7663965E0,5.296236E0,7.574984E0,1.7376017E1,5.047417E1,1.6646217E1,3.3742542E0,1.648963E1,4.5308798E2,1.5742188E1,1.450521E2,6.0104973E1,1.7321337E1,6.5565094E1,5.0375797E1],"tree_param":{"num_deleted":"0","num_feature":"20","num_nodes":"31","size_leaf_vector":"1"}},{"base_weights":[6.172807E-3,-5.757358E-2,2.0395057E-1,5.147115E-1,-7.476974E-2,-3.07941E-1,3.740586E-1,1.2356567E0,1.1743856E-1,-2.730411E-1,-2.778917E-2,4.8896372E-1,-5.516775E-1,7.553087E-1,-8.5792586E-2,7.8736834E-2,-0E0,1.51945595E-2,-5.1100194E-2,-2.265869E-2,7.0900708E-3,8.197782E-3,-4.291627E-3,4.8015114E-2,-6.920793E-3,1.7924348E-2,-3.3149153E-2,4.3663E-2,-5.8052284E-3,1.9845253E-2,-2.0521497E-2],"categories":[],"categories_nodes":[],"categories_segments":[],"categories_sizes":[],"default_left":[0,0,0,0,0,0,0,0,0,0,0,0,0,0,0,0,0,0,0,0,0,0,0,0,0,0,0,0,0,0,0],"id":21,"left_children":[1,3,5,7,9,11,13,15,17,19,21,23,25,27,29,-1,-1,-1,-1,-1,-1,-1,-1,-1,-1,-1,-1,-1,-1,-1,-1],"loss_changes":[1.2112159E1,7.1327014E0,2.0520695E1,5.7676754E0,6.531472E0,1.170344E1,3.1063171E1,3.0342054E0,3.3849695E0,1.0151597E1,6.36852E0,4.4182377E0,4.889639E0,1.011425E1,1.2817985E1,0E0,0E0,0E0,0E0,0E0,0E0,0E0,0E0,0E0,0E0,0E0,0E0,0E0,0E0,0E0,0E0],"parents":[2147483647,0,0,1,1,2,2,3,3,4,4,5,5,6,6,7,7,8,8,9,9,10,10,11,11,12,12,13,13,14,14],"right_children":[2,4,6,8,10,12,14,16,18,20,22,24,26,28,30,-1,-1,-1,-1,-1,-1,-1,-1,-1,-1,-1,-1,-1,-1,-1,-1],"split_conditions":[1.156E0,-6.947944E-1,1.476E0,-5.907149E-1,3.8210067E-1,3.543814E-1,1.716E0,2.246E0,9.437122E-1,9.93E-1,-5.917E3,-7.2719014E-1,1.168E0,1.9999E4,7.7575415E-1,7.8736834E-2,-0E0,1.51945595E-2,-5.1100194E-2,-2.265869E-2,7.0900708E-3,8.197782E-3,-4.291627E-3,4.8015114E-2,-6.920793E-3,1.7924348E-2,-3.3149153E-2,4.3663E-2,-5.8052284E-3,1.9845253E-2,-2.0521497E-2],"split_indices":[6,11,16,10,8,8,16,16,8,6,17,7,6,17,8,0,0,0,0,0,0,0,0,0,0,0,0,0,0,0,0],"split_type":[0,0,0,0,0,0,0,0,0,0,0,0,0,0,0,0,0,0,0,0,0,0,0,0,0,0,0,0,0,0,0],"sum_hessian":[9.576093E2,7.2434625E2,2.3326309E2,2.0116777E1,7.042295E2,5.783301E1,1.7543007E2,6.307773E0,1.3809004E1,1.3357303E2,5.7065643E2,1.3213767E1,4.4619244E1,9.567964E1,7.9750435E1,4.7230773E0,1.5846959E0,1.2572727E1,1.236277E0,9.323655E1,4.033647E1,1.317793E2,4.3887714E2,7.3332043E0,5.880563E0,4.5220985E0,4.0097145E1,8.4372E1,1.1307641E1,3.1855059E1,4.7895374E1],"tree_param":{"num_deleted":"0","num_feature":"20","num_nodes":"31","size_leaf_vector":"1"}},{"base_weights":[5.507071E-3,-4.1733295E-2,1.4830342E-1,-3.1519377E-1,-2.1667464E-3,-3.462755E-1,3.2534668E-1,-4.9243006E-1,5.7054255E-2,4.1084554E-2,-3.2181215E-1,2.958035E-1,-6.408722E-1,6.5708035E-1,-1.003653E-1,-3.3286706E-2,-2.3189664E-3,-3.648261E-2,1.1581927E-2,2.7140358E-3,-4.6708424E-2,-2.1833254E-2,2.3344561E-2,3.0881573E-2,-4.037724E-2,-4.13055E-2,6.8074293E-3,2.6311649E-3,4.2966854E-2,3.4243006E-2,-1.4860116E-2],"categories":[],"categories_nodes":[],"categories_segments":[],"categories_sizes":[],"default_left":[0,0,0,0,0,0,0,0,0,0,0,0,0,0,0,0,0,0,0,0,0,0,0,0,0,0,0,0,0,0,0],"id":22,"left_children":[1,3,5,7,9,11,13,15,17,19,21,23,25,27,29,-1,-1,-1,-1,-1,-1,-1,-1,-1,-1,-1,-1,-1,-1,-1,-1],"loss_changes":[6.4920835E0,7.77452E0,2.106961E1,6.0672293E0,8.774049E0,1.2222673E1,2.5108185E1,4.6790266E0,4.2431993E0,7.13093E0,7.0556183E0,7.768986E0,6.500868E0,1.2053127E1,1.2255236E1,0E0,0E0,0E0,0E0,0E0,0E0,0E0,0E0,0E0,0E0,0E0,0E0,0E0,0E0,0E0,0E0],"parents":[2147483647,0,0,1,1,2,2,3,3,4,4,5,5,6,6,7,7,8,8,9,9,10,10,11,11,12,12,13,13,14,14],"right_children":[2,4,6,8,10,12,14,16,18,20,22,24,26,28,30,-1,-1,-1,-1,-1,-1,-1,-1,-1,-1,-1,-1,-1,-1,-1,-1],"split_conditions":[1.156E0,2.7E0,1.476E0,2.0019E4,1.37E0,-5.327022E-1,1.716E0,7.2046196E-1,-4.17533E-1,1.3565877E-1,8.237104E-1,1.4E0,1.38E0,1.7687E4,5.733454E-1,-3.3286706E-2,-2.3189664E-3,-3.648261E-2,1.1581927E-2,2.7140358E-3,-4.6708424E-2,-2.1833254E-2,2.3344561E-2,3.0881573E-2,-4.037724E-2,-4.13055E-2,6.8074293E-3,2.6311649E-3,4.2966854E-2,3.4243006E-2,-1.4860116E-2],"split_indices":[6,4,16,18,0,7,16,8,11,12,8,0,0,18,8,0,0,0,0,0,0,0,0,0,0,0,0,0,0,0,0],"split_type":[0,0,0,0,0,0,0,0,0,0,0,0,0,0,0,0,0,0,0,0,0,0,0,0,0,0,0,0,0,0,0],"sum_hessian":[9.588987E2,7.20536E2,2.3836267E2,8.987561E1,6.306604E2,6.2432827E1,1.7592984E2,6.0849483E1,2.9026127E1,5.559881E2,7.467227E1,1.9527885E1,4.290494E1,9.870553E1,7.722431E1,4.3306797E1,1.7542685E1,4.5901175E0,2.4436008E1,5.495984E2,6.389742E0,6.568081E1,8.991461E0,1.5529151E1,3.9987354E0,3.4698513E1,8.206429E0,2.5187042E1,7.3518486E1,1.487948E1,6.234483E1],"tree_param":{"num_deleted":"0","num_feature":"20","num_nodes":"31","size_leaf_vector":"1"}},{"base_weights":[-3.306083E-3,-1.2495048E-1,9.7611986E-2,-6.3825065E-1,-2.8014522E-2,5.700571E-1,6.86852E-3,-9.0539557E-1,-1.2466963E-1,-7.330536E-2,7.48477E-1,3.3457217E-1,9.00865E-1,4.9632594E-2,-7.104228E-1,-6.024422E-2,2.0590026E-3,5.0199565E-2,-1.6022956E-2,7.418959E-3,-1.1588092E-2,4.825177E-2,-4.006154E-2,-1.3632752E-3,2.9744634E-2,6.0264397E-2,3.0349854E-2,7.475494E-3,-1.2205301E-2,-5.5950372E-3,-5.6432314E-2],"categories":[],"categories_nodes":[],"categories_segments":[],"categories_sizes":[],"default_left":[0,0,0,0,0,0,0,0,0,0,0,0,0,0,0,0,0,0,0,0,0,0,0,0,0,0,0,0,0,0,0],"id":23,"left_children":[1,3,5,7,9,11,13,15,17,19,21,23,25,27,29,-1,-1,-1,-1,-1,-1,-1,-1,-1,-1,-1,-1,-1,-1,-1,-1],"loss_changes":[1.1932566E1,2.186261E1,2.2690819E1,9.36845E0,1.3077827E1,6.221607E0,1.3661979E1,1.3111637E1,5.8200617E0,1.2433738E1,7.6634226E0,4.934234E0,2.1925335E0,1.2417668E1,6.020012E0,0E0,0E0,0E0,0E0,0E0,0E0,0E0,0E0,0E0,0E0,0E0,0E0,0E0,0E0,0E0,0E0],"parents":[2147483647,0,0,1,1,2,2,3,3,4,4,5,5,6,6,7,7,8,8,9,9,10,10,11,11,12,12,13,13,14,14],"right_children":[2,4,6,8,10,12,14,16,18,20,22,24,26,28,30,-1,-1,-1,-1,-1,-1,-1,-1,-1,-1,-1,-1,-1,-1,-1,-1],"split_conditions":[9.65E-1,3.8833334E0,3.8833334E0,6.25E0,6.5E0,1.163E0,6.5E0,9.11E-1,5.9E-1,4.3966665E0,9.41E-1,6E0,2.2779694E-2,7.386526E-1,1.098E0,-6.024422E-2,2.0590026E-3,5.0199565E-2,-1.6022956E-2,7.418959E-3,-1.1588092E-2,4.825177E-2,-4.006154E-2,-1.3632752E-3,2.9744634E-2,6.0264397E-2,3.0349854E-2,7.475494E-3,-1.2205301E-2,-5.5950372E-3,-5.6432314E-2],"split_indices":[6,15,15,14,14,6,14,6,0,15,6,4,13,8,6,0,0,0,0,0,0,0,0,0,0,0,0,0,0,0,0],"split_type":[0,0,0,0,0,0,0,0,0,0,0,0,0,0,0,0,0,0,0,0,0,0,0,0,0,0,0,0,0,0,0],"sum_hessian":[9.6979834E2,4.4008383E2,5.2971454E2,6.885635E1,3.7122748E2,8.432134E1,4.453932E2,4.466548E1,2.4190872E1,3.517454E2,1.9482065E1,5.060906E1,3.3712284E1,4.2134338E2,2.4049786E1,3.380319E1,1.0862296E1,2.8903434E0,2.1300528E1,1.463836E2,2.053618E2,1.7481047E1,2.001019E0,2.1389465E1,2.9219595E1,1.4868252E1,1.8844032E1,3.1505093E2,1.0629247E2,1.0512276E1,1.3537509E1],"tree_param":{"num_deleted":"0","num_feature":"20","num_nodes":"31","size_leaf_vector":"1"}},{"base_weights":[-2.4267344E-2,-8.747957E-2,1.4764829E-1,-3.954698E-1,-3.4234256E-2,-3.267678E-1,3.1943163E-1,-8.9523333E-1,1.17351815E-1,-2.949841E-1,2.4137955E-2,7.5321137E-3,-9.2157304E-1,6.706592E-1,7.840327E-3,-5.5949934E-2,-2.0578017E-2,1.6549034E-2,-1.4060183E-2,-4.0462427E-3,-3.4253594E-2,4.1058253E-2,-9.7259785E-5,-1.408721E-2,1.739374E-2,-5.1320057E-2,2.8927822E-2,4.5511775E-2,1.90431E-2,4.761856E-2,-6.388536E-3],"categories":[],"categories_nodes":[],"categories_segments":[],"categories_sizes":[],"default_left":[0,0,0,0,0,0,0,0,0,0,0,0,0,0,0,0,0,0,0,0,0,0,0,0,0,0,0,0,0,0,0],"id":24,"left_children":[1,3,5,7,9,11,13,15,17,19,21,23,25,27,29,-1,-1,-1,-1,-1,-1,-1,-1,-1,-1,-1,-1,-1,-1,-1,-1],"loss_changes":[1.0439862E1,1.1471967E1,2.1133633E1,2.6644386E1,9.177926E0,1.38061695E1,2.0732315E1,5.0689507E0,4.5036798E0,9.076125E0,1.0300753E1,4.5367527E0,4.557453E0,5.7177696E0,1.32565775E1,0E0,0E0,0E0,0E0,0E0,0E0,0E0,0E0,0E0,0E0,0E0,0E0,0E0,0E0,0E0,0E0],"parents":[2147483647,0,0,1,1,2,2,3,3,4,4,5,5,6,6,7,7,8,8,9,9,10,10,11,11,12,12,13,13,14,14],"right_children":[2,4,6,8,10,12,14,16,18,20,22,24,26,28,30,-1,-1,-1,-1,-1,-1,-1,-1,-1,-1,-1,-1,-1,-1,-1,-1],"split_conditions":[1.143E0,3.8833334E0,1.476E0,9.22E-1,2.8145525E-1,7.263799E-1,4.8370385E-1,6.25E0,6.25E0,1.67E0,-1.6083443E0,6.738468E-3,1.2527381E-1,7.942394E-4,3.7233334E0,-5.5949934E-2,-2.0578017E-2,1.6549034E-2,-1.4060183E-2,-4.0462427E-3,-3.4253594E-2,4.1058253E-2,-9.7259785E-5,-1.408721E-2,1.739374E-2,-5.1320057E-2,2.8927822E-2,4.5511775E-2,1.90431E-2,4.761856E-2,-6.388536E-3],"split_indices":[6,15,16,6,8,7,8,14,14,5,7,12,12,13,15,0,0,0,0,0,0,0,0,0,0,0,0,0,0,0,0],"split_type":[0,0,0,0,0,0,0,0,0,0,0,0,0,0,0,0,0,0,0,0,0,0,0,0,0,0,0,0,0,0,0],"sum_hessian":[9.5904395E2,7.0199713E2,2.570468E2,1.0224861E2,5.9974854E2,6.793781E1,1.8910901E2,5.1504696E1,5.0743916E1,1.0927491E2,4.904736E2,4.4017666E1,2.3920149E1,8.8207596E1,1.0090141E2,3.4174152E1,1.7330544E1,3.330997E1,1.7433947E1,7.150216E1,3.777275E1,1.4697929E1,4.757757E2,2.3728142E1,2.0289524E1,2.2715271E1,1.2048762E0,4.6926933E1,4.128066E1,1.2004521E1,8.88969E1],"tree_param":{"num_deleted":"0","num_feature":"20","num_nodes":"31","size_leaf_vector":"1"}},{"base_weights":[1.5099641E-2,6.093507E-1,1.2808746E-4,9.790661E-1,1.024702E-2,9.31438E-3,-6.4215076E-1,1.2004879E0,-3.283912E-2,5.7894446E-2,-4.2043918E-1,-1.0842501E-1,6.548223E-2,3.2557136E-1,-9.901614E-1,6.0309893E-3,6.528791E-2,2.3175081E-2,-2.4515092E-2,5.5250883E-2,-4.1891854E-2,-1.585425E-2,3.7393086E-3,1.2210968E-2,-5.1582576E-4,3.329435E-2,-1.4550715E-2,1.1861614E-2,-6.056531E-2],"categories":[],"categories_nodes":[],"categories_segments":[],"categories_sizes":[],"default_left":[0,0,0,0,0,0,0,0,0,0,0,0,0,0,0,0,0,0,0,0,0,0,0,0,0,0,0,0,0],"id":25,"left_children":[1,3,5,7,9,11,13,15,17,-1,19,21,23,25,27,-1,-1,-1,-1,-1,-1,-1,-1,-1,-1,-1,-1,-1,-1],"loss_changes":[8.555775E0,5.126562E0,5.5235686E0,3.4056845E0,5.5695267E0,6.177428E0,4.8338504E0,1.064785E0,1.0237361E0,0E0,6.0176764E0,1.1568571E1,8.606245E0,1.1057729E0,3.107524E0,0E0,0E0,0E0,0E0,0E0,0E0,0E0,0E0,0E0,0E0,0E0,0E0,0E0,0E0],"parents":[2147483647,0,0,1,1,2,2,3,3,4,4,5,5,6,6,7,7,8,8,10,10,11,11,12,12,13,13,14,14],"right_children":[2,4,6,8,10,12,14,16,18,-1,20,22,24,26,28,-1,-1,-1,-1,-1,-1,-1,-1,-1,-1,-1,-1,-1,-1],"split_conditions":[-6.947944E-1,1.4249952E-1,1.7323197E-1,1.1740348E0,4.06E0,-2.9920047E-2,1.627E0,6.0473723E0,-7.799357E-1,5.7894446E-2,6.3421216E0,1.7774E4,4.06E0,1.15E1,2.1E0,6.0309893E-3,6.528791E-2,2.3175081E-2,-2.4515092E-2,5.5250883E-2,-4.1891854E-2,-1.585425E-2,3.7393086E-3,1.2210968E-2,-5.1582576E-4,3.329435E-2,-1.4550715E-2,1.1861614E-2,-6.056531E-2],"split_indices":[11,10,13,7,15,12,16,3,10,0,3,18,14,4,4,0,0,0,0,0,0,0,0,0,0,0,0,0,0],"split_type":[0,0,0,0,0,0,0,0,0,0,0,0,0,0,0,0,0,0,0,0,0,0,0,0,0,0,0,0,0],"sum_hessian":[9.675215E2,2.2636915E1,9.448846E2,1.3502931E1,9.1339855E0,9.3268585E2,1.219869E1,1.1006897E1,2.4960341E0,2.0950515E0,7.0389338E0,3.003596E2,6.323263E2,3.1675992E0,9.031091E0,1.2526724E0,9.754224E0,1.0859717E0,1.4100623E0,1.1068332E0,5.9321003E0,1.4034041E2,1.6001917E2,1.8803293E2,4.4429337E2,2.0940456E0,1.0735537E0,1.2986127E0,7.732478E0],"tree_param":{"num_deleted":"0","num_feature":"20","num_nodes":"29","size_leaf_vector":"1"}},{"base_weights":[6.2623564E-3,4.8419937E-1,-6.2038796E-3,-4.830862E-1,7.119971E-1,-5.160917E-2,1.3475329E-1,1.5866838E-2,-8.5414475E-1,1.0161514E0,-1.6810904E-1,-4.068148E-2,-8.3505493E-1,8.1444204E-1,1.1705046E-2,-5.4459544E-3,-5.567134E-2,6.1543584E-2,-8.510888E-3,-4.7308058E-2,3.4851577E-2,2.6658576E-3,-6.401175E-3,-6.0121905E-2,3.4082711E-3,5.6898024E-2,2.353615E-2,3.1945023E-3,-4.764203E-2],"categories":[],"categories_nodes":[],"categories_segments":[],"categories_sizes":[],"default_left":[0,0,0,0,0,0,0,0,0,0,0,0,0,0,0,0,0,0,0,0,0,0,0,0,0,0,0,0,0],"id":26,"left_children":[1,3,5,7,9,11,13,-1,15,17,19,21,23,25,27,-1,-1,-1,-1,-1,-1,-1,-1,-1,-1,-1,-1,-1,-1],"loss_changes":[5.7333765E0,5.7568264E0,5.9527354E0,1.8616563E0,5.6861467E0,5.9132824E0,1.884253E1,0E0,5.0850654E-1,4.2137947E0,4.7123003E0,5.731602E0,3.3543148E0,3.1470146E0,9.678218E0,0E0,0E0,0E0,0E0,0E0,0E0,0E0,0E0,0E0,0E0,0E0,0E0,0E0,0E0],"parents":[2147483647,0,0,1,1,2,2,3,3,4,4,5,5,6,6,8,8,9,9,10,10,11,11,12,12,13,13,14,14],"right_children":[2,4,6,8,10,12,14,-1,16,18,20,22,24,26,28,-1,-1,-1,-1,-1,-1,-1,-1,-1,-1,-1,-1,-1,-1],"split_conditions":[6.3721853E-1,6.3E-1,1.156E0,1.4732E4,-5.917E3,1.313422E-1,3.8833334E0,1.5866838E-2,5.1E-1,8.06E-1,7.0457764E0,5.45E0,7.710205E0,1.48E0,6.5E0,-5.4459544E-3,-5.567134E-2,6.1543584E-2,-8.510888E-3,-4.7308058E-2,3.4851577E-2,2.6658576E-3,-6.401175E-3,-6.0121905E-2,3.4082711E-3,5.6898024E-2,2.353615E-2,3.1945023E-3,-4.764203E-2],"split_indices":[9,5,6,18,17,12,15,0,5,6,3,14,3,5,14,0,0,0,0,0,0,0,0,0,0,0,0,0,0],"split_type":[0,0,0,0,0,0,0,0,0,0,0,0,0,0,0,0,0,0,0,0,0,0,0,0,0,0,0,0,0],"sum_hessian":[9.5275977E2,2.3461498E1,9.292983E2,4.1747613E0,1.9286736E1,7.039003E2,2.2539792E2,1.2828225E0,2.891939E0,1.4302875E1,4.9838614E0,6.9538055E2,8.519765E0,3.3564445E1,1.9183347E2,1.212563E0,1.6793759E0,1.2150537E1,2.152338E0,2.6355522E0,2.348309E0,3.345635E2,3.6081705E2,5.8995643E0,2.6202004E0,1.595009E1,1.7614355E1,1.8297156E2,8.86191E0],"tree_param":{"num_deleted":"0","num_feature":"20","num_nodes":"29","size_leaf_vector":"1"}},{"base_weights":[-1.8161787E-2,-7.132271E-2,8.806161E-2,2.2910947E-1,-1.0711229E-1,-7.43962E-1,1.3552232E-1,7.72192E-1,-2.2690468E-2,6.6895384E-1,-1.24268964E-1,-3.2468885E-1,-1.0662568E0,2.0816833E-1,-4.779466E-1,4.8467036E-2,-5.605328E-2,-6.770487E-2,5.0566243E-3,-1.3016543E-3,5.2904855E-2,-4.0390897E-3,-2.1039173E-2,1.2554585E-2,-3.641913E-2,-6.311628E-2,-9.922977E-3,1.7221225E-2,-8.583832E-4,-5.1558E-2,4.7923937E-3],"categories":[],"categories_nodes":[],"categories_segments":[],"categories_sizes":[],"default_left":[0,0,0,0,0,0,0,0,0,0,0,0,0,0,0,0,0,0,0,0,0,0,0,0,0,0,0,0,0,0,0],"id":27,"left_children":[1,3,5,7,9,11,13,15,17,19,21,23,25,27,29,-1,-1,-1,-1,-1,-1,-1,-1,-1,-1,-1,-1,-1,-1,-1,-1],"loss_changes":[5.491899E0,6.988454E0,1.2831467E1,9.539512E0,7.7607265E0,1.8823137E0,1.3772524E1,9.297411E0,8.1828985E0,3.5359664E0,7.2544794E0,2.3661652E0,1.191474E0,8.503656E0,1.0574316E1,0E0,0E0,0E0,0E0,0E0,0E0,0E0,0E0,0E0,0E0,0E0,0E0,0E0,0E0,0E0,0E0],"parents":[2147483647,0,0,1,1,2,2,3,3,4,4,5,5,6,6,7,7,8,8,9,9,10,10,11,11,12,12,13,13,14,14],"right_children":[2,4,6,8,10,12,14,16,18,20,22,24,26,28,30,-1,-1,-1,-1,-1,-1,-1,-1,-1,-1,-1,-1,-1,-1,-1,-1],"split_conditions":[1.096E0,-1.0033E4,-1.1688E4,7.97E-1,-7.298343E-1,1.19E0,2.6755E4,9.048415E-2,8.15E-1,9.281097E-1,1.35E0,6.6227365E0,1.3705109E0,3.8495058E-1,6.5919757E-1,4.8467036E-2,-5.605328E-2,-6.770487E-2,5.0566243E-3,-1.3016543E-3,5.2904855E-2,-4.0390897E-3,-2.1039173E-2,1.2554585E-2,-3.641913E-2,-6.311628E-2,-9.922977E-3,1.7221225E-2,-8.583832E-4,-5.1558E-2,4.7923937E-3],"split_indices":[6,17,17,6,11,6,18,13,6,9,0,3,9,19,8,0,0,0,0,0,0,0,0,0,0,0,0,0,0,0,0],"split_type":[0,0,0,0,0,0,0,0,0,0,0,0,0,0,0,0,0,0,0,0,0,0,0,0,0,0,0,0,0,0,0],"sum_hessian":[9.7072943E2,6.4779944E2,3.2293E2,6.808349E1,5.79716E2,1.652103E1,3.0640894E2,2.1038363E1,4.7045128E1,1.1590942E1,5.6812506E2,8.1875515E0,8.333478E0,2.7470276E2,3.1706186E1,1.9544027E1,1.4943357E0,3.226289E0,4.3818836E1,4.4032054E0,7.187737E0,4.9686404E2,7.126098E1,3.4282322E0,4.75932E0,6.332791E0,2.0006871E0,1.7113571E2,1.03567055E2,1.5825505E1,1.5880681E1],"tree_param":{"num_deleted":"0","num_feature":"20","num_nodes":"31","size_leaf_vector":"1"}},{"base_weights":[6.4400015E-3,-8.125944E-2,9.4341405E-2,-4.1671824E-1,-4.7881342E-2,1.0884756E-1,-5.942884E-1,-7.113934E-1,7.4724925E-1,-2.0457947E-1,6.771746E-3,1.2042648E-2,1.996757E-1,2.0696293E-1,-1.0213704E0,-4.944704E-2,6.0721852E-2,-1.9889218E-3,6.049024E-2,1.7554067E-2,-1.5291968E-2,1.2384697E-2,-2.9353506E-3,-2.8730644E-2,5.525436E-3,5.5755943E-2,7.364299E-3,-2.855642E-2,3.7596986E-2,-6.37157E-2,6.664689E-3],"categories":[],"categories_nodes":[],"categories_segments":[],"categories_sizes":[],"default_left":[0,0,0,0,0,0,0,0,0,0,0,0,0,0,0,0,0,0,0,0,0,0,0,0,0,0,0,0,0,0,0],"id":28,"left_children":[1,3,5,7,9,11,13,15,17,19,21,23,25,27,29,-1,-1,-1,-1,-1,-1,-1,-1,-1,-1,-1,-1,-1,-1,-1,-1],"loss_changes":[7.4124103E0,5.3160563E0,4.8177066E0,1.531129E1,3.7774086E0,4.1242337E0,3.6905522E0,1.9872665E1,3.4875407E0,6.512913E0,5.1711755E0,1.3300475E1,1.1353453E1,2.2295098E0,2.2485952E0,0E0,0E0,0E0,0E0,0E0,0E0,0E0,0E0,0E0,0E0,0E0,0E0,0E0,0E0,0E0,0E0],"parents":[2147483647,0,0,1,1,2,2,3,3,4,4,5,5,6,6,7,7,8,8,9,9,10,10,11,11,12,12,13,13,14,14],"right_children":[2,4,6,8,10,12,14,16,18,20,22,24,26,28,30,-1,-1,-1,-1,-1,-1,-1,-1,-1,-1,-1,-1,-1,-1,-1,-1],"split_conditions":[8E0,7.4E-1,1.5107799E-1,6.312195E-1,-4.009462E-2,9.81E-1,1.627E0,2.6755E4,2.8E0,-1.0841378E-1,-5.907149E-1,3.8833334E0,3.7233334E0,1.18E0,7.4E-1,-4.944704E-2,6.0721852E-2,-1.9889218E-3,6.049024E-2,1.7554067E-2,-1.5291968E-2,1.2384697E-2,-2.9353506E-3,-2.8730644E-2,5.525436E-3,5.5755943E-2,7.364299E-3,-2.855642E-2,3.7596986E-2,-6.37157E-2,6.664689E-3],"split_indices":[4,6,12,8,13,6,16,18,4,12,10,15,15,6,1,0,0,0,0,0,0,0,0,0,0,0,0,0,0,0,0],"split_type":[0,0,0,0,0,0,0,0,0,0,0,0,0,0,0,0,0,0,0,0,0,0,0,0,0,0,0,0,0,0,0],"sum_hessian":[9.5937476E2,4.7970746E2,4.7966733E2,4.2100937E1,4.3760654E2,4.7073825E2,8.929064E0,3.397453E1,8.126409E0,1.1292398E2,3.2468253E2,2.2895299E2,2.4178526E2,3.2023566E0,5.726707E0,3.0165535E1,3.8089933E0,3.266443E0,4.8599653E0,1.6873951E1,9.605003E1,6.911726E1,2.5556528E2,3.2064316E1,1.9688869E2,1.188669E1,2.2989856E2,1.2237152E0,1.9786415E0,4.6836724E0,1.0430346E0],"tree_param":{"num_deleted":"0","num_feature":"20","num_nodes":"31","size_leaf_vector":"1"}},{"base_weights":[-1.5328251E-2,-6.13347E-2,1.3205674E-1,2.1433766E-1,-9.656369E-2,-6.846987E-1,2.153296E-1,7.0878917E-1,4.8365485E-2,-1.1948211E-1,3.1261858E-1,-1.080081E0,-5.4045368E-2,5.375801E-1,9.944274E-3,4.3734938E-2,-4.9644012E-2,-3.178929E-2,9.483068E-3,-1.5329677E-2,-1.6232141E-3,4.7686443E-2,-2.236871E-2,-0E0,-5.938455E-2,-5.3753223E-2,1.896636E-2,3.4476057E-2,-1.3653605E-2,4.264704E-3,-4.5776114E-2],"categories":[],"categories_nodes":[],"categories_segments":[],"categories_sizes":[],"default_left":[0,0,0,0,0,0,0,0,0,0,0,0,0,0,0,0,0,0,0,0,0,0,0,0,0,0,0,0,0,0,0],"id":29,"left_children":[1,3,5,7,9,11,13,15,17,19,21,23,25,27,29,-1,-1,-1,-1,-1,-1,-1,-1,-1,-1,-1,-1,-1,-1,-1,-1],"loss_changes":[6.4800634E0,7.092664E0,1.554711E1,6.6718483E0,6.0926695E0,5.099703E0,1.3638302E1,6.6566133E0,6.175326E0,9.959239E0,1.7239464E1,1.4087858E0,4.591041E0,1.012747E1,8.89406E0,0E0,0E0,0E0,0E0,0E0,0E0,0E0,0E0,0E0,0E0,0E0,0E0,0E0,0E0,0E0,0E0],"parents":[2147483647,0,0,1,1,2,2,3,3,4,4,5,5,6,6,7,7,8,8,9,9,10,10,11,11,12,12,13,13,14,14],"right_children":[2,4,6,8,10,12,14,16,18,20,22,24,26,28,30,-1,-1,-1,-1,-1,-1,-1,-1,-1,-1,-1,-1,-1,-1,-1,-1],"split_conditions":[1.156E0,-1.0033E4,-1.0033E4,7.97E-1,6.5E0,5.6E-1,6.8810534E-1,9.048415E-2,6.4E-1,8.4E-1,9.46E-1,1.0974083E0,-1.11191384E-1,1.5395E4,6.35E0,4.3734938E-2,-4.9644012E-2,-3.178929E-2,9.483068E-3,-1.5329677E-2,-1.6232141E-3,4.7686443E-2,-2.236871E-2,-0E0,-5.938455E-2,-5.3753223E-2,1.896636E-2,3.4476057E-2,-1.3653605E-2,4.264704E-3,-4.5776114E-2],"split_indices":[6,17,17,6,14,1,7,13,0,6,6,9,11,17,14,0,0,0,0,0,0,0,0,0,0,0,0,0,0,0,0],"split_type":[0,0,0,0,0,0,0,0,0,0,0,0,0,0,0,0,0,0,0,0,0,0,0,0,0,0,0,0,0,0,0],"sum_hessian":[9.545169E2,7.284062E2,2.2611075E2,8.163973E1,6.467665E2,2.0140991E1,2.0596976E2,1.9543678E1,6.2096054E1,6.1336414E2,3.3402317E1,1.1844184E1,8.296806E0,7.935582E1,1.2661394E2,1.830383E1,1.2398472E0,9.909084E0,5.218697E1,1.9353656E2,4.1982758E2,1.8051338E1,1.535098E1,1.2233305E0,1.0620853E1,2.0997896E0,6.1970167E0,6.705958E1,1.2296237E1,1.1802079E2,8.593147E0],"tree_param":{"num_deleted":"0","num_feature":"20","num_nodes":"31","size_leaf_vector":"1"}},{"base_weights":[-1.7373784E-2,-1.2512249E-1,7.410361E-2,2.2256537E-1,-2.4283686E-1,2.0300081E-1,-1.3482071E-1,3.0236712E-1,-6.4491117E-1,-7.0548505E-1,-9.211349E-3,-7.278462E-2,3.0984342E-1,-4.8875582E-1,-1.37652345E-2,-5.3334434E-2,1.734725E-2,2.1342857E-2,-5.6228876E-2,-5.3211387E-2,-1.9342598E-2,1.4975955E-2,-1.3144597E-2,-1.5223729E-2,9.544854E-3,3.7152197E-2,9.319991E-3,-9.652716E-3,-4.6102725E-2,6.2719295E-3,-1.9008717E-2],"categories":[],"categories_nodes":[],"categories_segments":[],"categories_sizes":[],"default_left":[0,0,0,0,0,0,0,0,0,0,0,0,0,0,0,0,0,0,0,0,0,0,0,0,0,0,0,0,0,0,0],"id":30,"left_children":[1,3,5,7,9,11,13,15,17,19,21,23,25,27,29,-1,-1,-1,-1,-1,-1,-1,-1,-1,-1,-1,-1,-1,-1,-1,-1],"loss_changes":[9.525049E0,1.8224945E1,1.4091063E1,7.9548373E0,3.584297E1,9.57878E0,8.489454E0,6.6384993E0,5.535707E0,1.2171761E1,1.7460428E1,5.621816E0,1.2262062E1,6.1933355E0,7.7174945E0,0E0,0E0,0E0,0E0,0E0,0E0,0E0,0E0,0E0,0E0,0E0,0E0,0E0,0E0,0E0,0E0],"parents":[2147483647,0,0,1,1,2,2,3,3,4,4,5,5,6,6,7,7,8,8,9,9,10,10,11,11,12,12,13,13,14,14],"right_children":[2,4,6,8,10,12,14,16,18,20,22,24,26,28,30,-1,-1,-1,-1,-1,-1,-1,-1,-1,-1,-1,-1,-1,-1,-1,-1],"split_conditions":[9.65E-1,1.476E0,7.263799E-1,9.48E-1,1.636E0,1.7687E4,1.476E0,3.8918202E0,5.9401712E0,8.23E-1,4.06E0,5.6E-1,4.04E0,2.5406526E-2,1.1840918E0,-5.3334434E-2,1.734725E-2,2.1342857E-2,-5.6228876E-2,-5.3211387E-2,-1.9342598E-2,1.4975955E-2,-1.3144597E-2,-1.5223729E-2,9.544854E-3,3.7152197E-2,9.319991E-3,-9.652716E-3,-4.6102725E-2,6.2719295E-3,-1.9008717E-2],"split_indices":[6,16,7,6,16,18,16,3,3,6,14,1,14,13,9,0,0,0,0,0,0,0,0,0,0,0,0,0,0,0,0],"split_type":[0,0,0,0,0,0,0,0,0,0,0,0,0,0,0,0,0,0,0,0,0,0,0,0,0,0,0,0,0,0,0],"sum_hessian":[9.639072E2,4.429243E2,5.20983E2,1.1158886E2,3.3133542E2,3.225133E2,1.9846965E2,1.0289038E2,8.698474E0,1.1035394E2,2.2098148E2,8.988421E1,2.3262909E2,4.9597065E1,1.4887259E2,2.450795E0,1.0043959E2,2.658942E0,6.039531E0,5.0661427E1,5.9692516E1,9.941639E1,1.2156509E2,4.796404E1,4.1920166E1,5.0295998E1,1.8233308E2,3.047557E1,1.9121496E1,1.08164246E2,4.070834E1],"tree_param":{"num_deleted":"0","num_feature":"20","num_nodes":"31","size_leaf_vector":"1"}},{"base_weights":[1.0442769E-2,-2.9841896E-2,2.705702E-1,-4.890249E-2,3.372907E-1,-2.53963E-1,4.021701E-1,9.2971794E-2,-8.843703E-2,8.3370364E-1,-3.712969E-1,7.452186E-1,-5.455309E-1,-1.6210712E-1,6.5640193E-1,2.2152744E-3,5.563865E-2,-1.9955425E-2,-2.7235458E-3,-2.304104E-2,4.604653E-2,-3.0975563E-2,2.037192E-2,5.07127E-2,-1.1047643E-2,-4.633398E-4,-5.551612E-2,3.5471514E-2,-2.8973434E-2,3.817403E-2,-0E0],"categories":[],"categories_nodes":[],"categories_segments":[],"categories_sizes":[],"default_left":[0,0,0,0,0,0,0,0,0,0,0,0,0,0,0,0,0,0,0,0,0,0,0,0,0,0,0,0,0,0,0],"id":31,"left_children":[1,3,5,7,9,11,13,15,17,19,21,23,25,27,29,-1,-1,-1,-1,-1,-1,-1,-1,-1,-1,-1,-1,-1,-1,-1,-1],"loss_changes":[1.0103345E1,5.815118E0,9.043024E0,4.4544864E0,1.47666E1,8.07652E0,1.5063017E1,8.406576E0,6.4867463E0,3.234869E0,3.6536145E0,1.9430435E0,6.2649145E0,1.238563E1,4.9920807E0,0E0,0E0,0E0,0E0,0E0,0E0,0E0,0E0,0E0,0E0,0E0,0E0,0E0,0E0,0E0,0E0],"parents":[2147483647,0,0,1,1,2,2,3,3,4,4,5,5,6,6,7,7,8,8,9,9,10,10,11,11,12,12,13,13,14,14],"right_children":[2,4,6,8,10,12,14,16,18,20,22,24,26,28,30,-1,-1,-1,-1,-1,-1,-1,-1,-1,-1,-1,-1,-1,-1,-1,-1],"split_conditions":[1.223E0,6.5E0,4.02E0,4.02E0,9.97E-1,3.7233334E0,1.476E0,1.0711156E0,7.4E-1,4.4426513E0,1.21E0,6E-1,9.437122E-1,-5.327022E-1,1.6218947E0,2.2152744E-3,5.563865E-2,-1.9955425E-2,-2.7235458E-3,-2.304104E-2,4.604653E-2,-3.0975563E-2,2.037192E-2,5.07127E-2,-1.1047643E-2,-4.633398E-4,-5.551612E-2,3.5471514E-2,-2.8973434E-2,3.817403E-2,-0E0],"split_indices":[6,14,14,14,6,15,16,7,6,3,0,1,8,7,7,0,0,0,0,0,0,0,0,0,0,0,0,0,0,0,0],"split_type":[0,0,0,0,0,0,0,0,0,0,0,0,0,0,0,0,0,0,0,0,0,0,0,0,0,0,0,0,0,0,0],"sum_hessian":[9.600704E2,8.317605E2,1.2830984E2,7.917919E2,3.9968647E1,2.5396069E1,1.0291378E2,1.7170988E2,6.20082E2,2.3482288E1,1.6486357E1,5.3077908E0,2.0088278E1,3.1955765E1,7.0958015E1,1.649784E2,6.731492E0,5.9763165E1,5.6031885E2,1.1396365E0,2.2342653E1,1.2754016E1,3.73234E0,4.1937537E0,1.114037E0,1.0916566E1,9.171712E0,1.0043486E1,2.191228E1,6.0753292E1,1.0204723E1],"tree_param":{"num_deleted":"0","num_feature":"20","num_nodes":"31","size_leaf_vector":"1"}},{"base_weights":[-1.5043998E-3,-2.684637E-1,1.9327404E-2,4.5997846E-1,-6.2135416E-1,3.192394E-2,-5.656531E-1,9.694794E-1,-5.5401206E-1,-8.867382E-1,8.347068E-2,4.341804E-2,-4.7784042E-1,3.1705227E-2,-7.391708E-1,5.7035364E-2,-2.9681732E-3,8.111547E-3,-4.4742983E-2,-5.2259292E-2,-1.9099128E-2,4.4118207E-2,-2.5729377E-2,-1.5499226E-3,6.4313295E-3,-3.3856843E-2,3.068378E-2,-2.2770967E-2,-6.373917E-2],"categories":[],"categories_nodes":[],"categories_segments":[],"categories_sizes":[],"default_left":[0,0,0,0,0,0,0,0,0,0,0,0,0,0,0,0,0,0,0,0,0,0,0,0,0,0,0,0,0],"id":32,"left_children":[1,3,5,7,9,11,13,15,17,19,21,23,25,-1,27,-1,-1,-1,-1,-1,-1,-1,-1,-1,-1,-1,-1,-1,-1],"loss_changes":[5.3074093E0,1.8065865E1,6.4553537E0,1.2478739E1,8.958748E0,5.036127E0,4.3208747E0,2.9522533E0,2.238367E0,2.2079716E0,7.029832E0,5.3747225E0,4.5397625E0,0E0,1.7778893E0,0E0,0E0,0E0,0E0,0E0,0E0,0E0,0E0,0E0,0E0,0E0,0E0,0E0,0E0],"parents":[2147483647,0,0,1,1,2,2,3,3,4,4,5,5,6,6,7,7,8,8,9,9,10,10,11,11,12,12,14,14],"right_children":[2,4,6,8,10,12,14,16,18,20,22,24,26,-1,28,-1,-1,-1,-1,-1,-1,-1,-1,-1,-1,-1,-1,-1,-1],"split_conditions":[7.35E-1,-5.917E3,1.1132529E0,4.9333334E0,8.165324E-1,2.15E0,7.721561E-1,8.907477E0,7.22E-1,1.9834278E-2,1.184E4,7.2806973E0,6.35E0,3.1705227E-2,1.84E0,5.7035364E-2,-2.9681732E-3,8.111547E-3,-4.4742983E-2,-5.2259292E-2,-1.9099128E-2,4.4118207E-2,-2.5729377E-2,-1.5499226E-3,6.4313295E-3,-3.3856843E-2,3.068378E-2,-2.2770967E-2,-6.373917E-2],"split_indices":[6,17,8,15,7,2,9,3,6,12,17,3,14,0,2,0,0,0,0,0,0,0,0,0,0,0,0,0,0],"split_type":[0,0,0,0,0,0,0,0,0,0,0,0,0,0,0,0,0,0,0,0,0,0,0,0,0,0,0,0,0],"sum_hessian":[9.479438E2,6.810408E1,8.798397E2,2.2034103E1,4.6069977E1,8.623861E2,1.7453608E1,1.47600975E1,7.2740054E0,3.3383896E1,1.2686081E1,8.444564E2,1.7929691E1,1.7971075E0,1.5656501E1,1.2644218E1,2.115879E0,2.4197962E0,4.854209E0,2.4442402E1,8.941493E0,5.299187E0,7.3868937E0,4.504877E2,3.9396872E2,1.5559909E1,2.369782E0,1.1566106E1,4.090395E0],"tree_param":{"num_deleted":"0","num_feature":"20","num_nodes":"29","size_leaf_vector":"1"}},{"base_weights":[-1.8189033E-2,-1.06818035E-1,6.6682436E-2,-1.695401E-1,1.2200204E-1,1.3979588E-1,-1.244065E-1,-3.107121E-1,-1.743626E-2,1.689569E-1,-6.7747846E-2,-1.3054319E-2,2.3408139E-1,-3.6895763E-2,-5.731669E-1,1.8564867E-2,-1.828797E-2,2.196831E-2,-4.324426E-3,1.5935495E-2,-8.323406E-3,-5.0975895E-3,2.9675147E-2,-3.851228E-3,1.7020931E-2,-2.2902144E-2,5.6112893E-3,3.9654024E-2,-3.9713707E-2],"categories":[],"categories_nodes":[],"categories_segments":[],"categories_sizes":[],"default_left":[0,0,0,0,0,0,0,0,0,0,0,0,0,0,0,0,0,0,0,0,0,0,0,0,0,0,0,0,0],"id":33,"left_children":[1,3,5,7,9,11,13,15,17,19,-1,21,23,25,27,-1,-1,-1,-1,-1,-1,-1,-1,-1,-1,-1,-1,-1,-1],"loss_changes":[7.159243E0,6.710811E0,6.8015385E0,7.828536E0,7.0767813E0,5.097667E0,5.1997066E0,7.2536373E0,5.609593E0,5.006607E0,0E0,7.281341E0,7.269409E0,7.2331266E0,7.1830306E0,0E0,0E0,0E0,0E0,0E0,0E0,0E0,0E0,0E0,0E0,0E0,0E0,0E0,0E0],"parents":[2147483647,0,0,1,1,2,2,3,3,4,4,5,5,6,6,7,7,8,8,9,9,11,11,12,12,13,13,14,14],"right_children":[2,4,6,8,10,12,14,16,18,20,-1,22,24,26,28,-1,-1,-1,-1,-1,-1,-1,-1,-1,-1,-1,-1,-1,-1],"split_conditions":[7.1024995E0,1.81E0,8.598405E0,-4.510581E-3,1.0789168E0,9.2E-1,1.1701103E0,7.212787E-1,-4.0707365E-1,8.532161E-1,-6.7747846E-2,1.3931464E0,1.476E0,1.35E0,2.6E-1,1.8564867E-2,-1.828797E-2,2.196831E-2,-4.324426E-3,1.5935495E-2,-8.323406E-3,-5.0975895E-3,2.9675147E-2,-3.851228E-3,1.7020931E-2,-2.2902144E-2,5.6112893E-3,3.9654024E-2,-3.9713707E-2],"split_indices":[3,2,3,13,8,6,9,9,11,7,0,7,16,2,5,0,0,0,0,0,0,0,0,0,0,0,0,0,0],"split_type":[0,0,0,0,0,0,0,0,0,0,0,0,0,0,0,0,0,0,0,0,0,0,0,0,0,0,0,0,0],"sum_hessian":[9.492841E2,4.648125E2,4.844716E2,3.6535956E2,9.945294E1,3.5097507E2,1.3349652E2,1.8860738E2,1.767522E2,9.731253E1,2.1404078E0,1.3382562E2,2.1714944E2,1.1280415E2,2.0692375E1,1.352145E1,1.7508592E2,2.2315714E1,1.5443648E2,6.751701E1,2.9795517E1,1.1758855E2,1.623708E1,5.514614E1,1.6200331E2,2.9131197E1,8.367295E1,2.4589715E0,1.8233402E1],"tree_param":{"num_deleted":"0","num_feature":"20","num_nodes":"29","size_leaf_vector":"1"}},{"base_weights":[3.951752E-2,-1.0796856E0,4.534869E-2,-6.685323E-2,-7.0121014E-3,9.082317E-2,-7.660346E-2,7.267033E-2,5.4318047E-1,-2.686544E-1,1.9211393E-2,1.3083102E-2,2.0704002E-3,5.5833437E-2,6.3819587E-3,9.989535E-4,-2.4868082E-2,3.303265E-3,-2.4190715E-2],"categories":[],"categories_nodes":[],"categories_segments":[],"categories_sizes":[],"default_left":[0,0,0,0,0,0,0,0,0,0,0,0,0,0,0,0,0,0,0],"id":34,"left_children":[1,3,5,-1,-1,7,9,11,13,15,17,-1,-1,-1,-1,-1,-1,-1,-1],"loss_changes":[6.1168156E0,8.3808327E-1,5.2310824E0,0E0,0E0,5.5404673E0,4.7359505E0,3.8694715E0,5.9622016E0,5.7039933E0,4.0251503E0,0E0,0E0,0E0,0E0,0E0,0E0,0E0,0E0],"parents":[2147483647,0,0,1,1,2,2,5,5,6,6,7,7,8,8,9,9,10,10],"right_children":[2,4,6,-1,-1,8,10,12,14,16,18,-1,-1,-1,-1,-1,-1,-1,-1],"split_conditions":[-5.951184E0,5.95E0,1.86E0,-6.685323E-2,-7.0121014E-3,4.4226006E-1,2.6777232E-1,-3.9524075E-1,9.181748E-1,-9.022E3,9.033604E0,1.3083102E-2,2.0704002E-3,5.5833437E-2,6.3819587E-3,9.989535E-4,-2.4868082E-2,3.303265E-3,-2.4190715E-2],"split_indices":[10,14,5,0,0,11,7,11,9,17,3,0,0,0,0,0,0,0,0],"split_type":[0,0,0,0,0,0,0,0,0,0,0,0,0,0,0,0,0,0,0],"sum_hessian":[9.446079E2,3.852607E0,9.407553E2,2.6083112E0,1.2442957E0,6.860214E2,2.5473389E2,6.608823E2,2.5139122E1,8.4534E1,1.7019987E2,9.230397E1,5.6857837E2,9.752202E0,1.5386921E1,3.7581158E1,4.695284E1,1.5667407E2,1.3525814E1],"tree_param":{"num_deleted":"0","num_feature":"20","num_nodes":"19","size_leaf_vector":"1"}},{"base_weights":[8.566979E-3,1.4773546E-1,-3.1571753E-2,9.746708E-1,9.952799E-2,-7.217501E-1,-1.2233329E-2,1.9263819E-1,1.2679995E0,-1.11790776E-1,2.6897928E-1,-9.5993686E-1,3.2083783E-1,-4.7822054E-2,2.5381258E-1,-4.4289254E-2,4.4160288E-2,7.5552806E-2,4.9788696E-3,4.2998693E-3,-3.0885523E-2,2.3224458E-2,1.4227439E-3,-1.7783046E-2,-5.9515942E-2,-2.135467E-2,4.427916E-2,-6.089376E-3,1.4278605E-3,3.3400215E-2,3.3640217E-3],"categories":[],"categories_nodes":[],"categories_segments":[],"categories_sizes":[],"default_left":[0,0,0,0,0,0,0,0,0,0,0,0,0,0,0,0,0,0,0,0,0,0,0,0,0,0,0,0,0,0,0],"id":35,"left_children":[1,3,5,7,9,11,13,15,17,19,21,23,25,27,29,-1,-1,-1,-1,-1,-1,-1,-1,-1,-1,-1,-1,-1,-1,-1,-1],"loss_changes":[5.3849483E0,8.401397E0,9.877386E0,2.2852268E0,7.39412E0,5.383279E0,6.8752112E0,4.098813E0,2.02005E0,9.289093E0,5.319255E0,1.754714E0,2.292887E0,3.642116E0,6.4954762E0,0E0,0E0,0E0,0E0,0E0,0E0,0E0,0E0,0E0,0E0,0E0,0E0,0E0,0E0,0E0,0E0],"parents":[2147483647,0,0,1,1,2,2,3,3,4,4,5,5,6,6,7,7,8,8,9,9,10,10,11,11,12,12,13,13,14,14],"right_children":[2,4,6,8,10,12,14,16,18,20,22,24,26,28,30,-1,-1,-1,-1,-1,-1,-1,-1,-1,-1,-1,-1,-1,-1,-1,-1],"split_conditions":[-2.520984E-1,4.8675346E0,-2.3005576E-1,5.1E-1,-8.778034E-3,2.5059E4,1.31E1,-6.045E3,3.7389246E-1,1.184E4,1.7774E4,6.6333184E0,-2.4400249E-1,7.1024995E0,1.37E1,-4.4289254E-2,4.4160288E-2,7.5552806E-2,4.9788696E-3,4.2998693E-3,-3.0885523E-2,2.3224458E-2,1.4227439E-3,-1.7783046E-2,-5.9515942E-2,-2.135467E-2,4.427916E-2,-6.089376E-3,1.4278605E-3,3.3400215E-2,3.3640217E-3],"split_indices":[11,3,11,1,12,18,4,17,10,17,18,3,11,3,4,0,0,0,0,0,0,0,0,0,0,0,0,0,0,0,0],"split_type":[0,0,0,0,0,0,0,0,0,0,0,0,0,0,0,0,0,0,0,0,0,0,0,0,0,0,0,0,0,0,0],"sum_hessian":[9.6008545E2,2.148771E2,7.452083E2,1.0663651E1,2.0421346E2,1.9180296E1,7.260281E2,3.4536505E0,7.2100005E0,9.076842E1,1.1344504E2,1.5755931E1,3.424366E0,6.4142175E2,8.460629E1,1.1813296E0,2.2723207E0,5.6548433E0,1.5551575E0,6.571115E1,2.5057268E1,6.183536E1,5.1609676E1,5.170891E0,1.058504E1,1.5019289E0,1.9224371E0,3.2622302E2,3.1519873E2,2.5303343E1,5.930295E1],"tree_param":{"num_deleted":"0","num_feature":"20","num_nodes":"31","size_leaf_vector":"1"}},{"base_weights":[-4.039435E-3,-3.1077694E-2,2.2673126E-1,-2.1767667E-2,-1.0282862E0,-5.9069604E-1,3.297538E-1,1.0985627E-1,-6.009281E-2,1.6982524E-2,-6.47875E-2,-1.0767245E0,-7.36977E-2,4.362524E-1,-4.3222028E-1,-5.231304E-3,1.47124E-2,-4.2430222E-2,-2.010245E-3,-6.0409456E-2,-1.1749416E-2,2.4201808E-2,-4.8653636E-2,3.4709327E-2,2.4140794E-3,-3.4213126E-2,4.159305E-2],"categories":[],"categories_nodes":[],"categories_segments":[],"categories_sizes":[],"default_left":[0,0,0,0,0,0,0,0,0,0,0,0,0,0,0,0,0,0,0,0,0,0,0,0,0,0,0],"id":36,"left_children":[1,3,5,7,9,11,13,15,17,-1,-1,19,21,23,25,-1,-1,-1,-1,-1,-1,-1,-1,-1,-1,-1,-1],"loss_changes":[5.9201794E0,7.785931E0,8.543774E0,4.2672315E0,3.3760262E0,2.6653156E0,7.416911E0,7.5820017E0,1.0166481E1,0E0,0E0,2.0173931E-1,3.8746128E0,7.773855E0,4.1577106E0,0E0,0E0,0E0,0E0,0E0,0E0,0E0,0E0,0E0,0E0,0E0,0E0],"parents":[2147483647,0,0,1,1,2,2,3,3,4,4,5,5,6,6,7,7,8,8,11,11,12,12,13,13,14,14],"right_children":[2,4,6,8,10,12,14,16,18,-1,-1,20,22,24,26,-1,-1,-1,-1,-1,-1,-1,-1,-1,-1,-1,-1],"split_conditions":[1.238E0,1.7583984E-1,-1.0033E4,-2.520984E-1,-3.9524075E-1,5.4E-1,2.6755E4,-7.2309966E-3,-2.3005576E-1,1.6982524E-2,-6.47875E-2,2.2178286E-1,-1.9036824E-2,3.8495058E-1,2.3459847E0,-5.231304E-3,1.47124E-2,-4.2430222E-2,-2.010245E-3,-6.0409456E-2,-1.1749416E-2,2.4201808E-2,-4.8653636E-2,3.4709327E-2,2.4140794E-3,-3.4213126E-2,4.159305E-2],"split_indices":[6,12,17,11,11,1,18,12,11,0,0,11,12,19,10,0,0,0,0,0,0,0,0,0,0,0,0],"split_type":[0,0,0,0,0,0,0,0,0,0,0,0,0,0,0,0,0,0,0,0,0,0,0,0,0,0,0],"sum_hessian":[9.4980817E2,8.513575E2,9.845068E1,8.4459436E2,6.7631006E0,1.0380756E1,8.806992E1,1.894548E2,6.551396E2,1.0007936E0,5.762307E0,4.692903E0,5.6878533E0,7.776033E1,1.0309596E1,8.753054E1,1.0192426E2,1.4968638E1,6.4017096E2,3.579666E0,1.1132374E0,3.7271423E0,1.9607112E0,4.60788E1,3.168153E1,9.044108E0,1.2654873E0],"tree_param":{"num_deleted":"0","num_feature":"20","num_nodes":"27","size_leaf_vector":"1"}},{"base_weights":[1.3230056E-2,3.6135167E-2,-1.8281303E-1,-3.7123855E-2,1.3070218E-1,-3.200811E-1,3.8264504E-1,1.3593799E-1,-1.1885458E-1,-4.3710706E-1,1.5112017E-1,3.0166796E-1,-3.921429E-1,5.724587E-1,-4.3883145E-2,9.497262E-3,-2.5896922E-2,-2.765185E-2,-3.69666E-3,-4.6109278E-2,1.5020462E-2,6.778998E-3,4.3655854E-2,-1.718611E-2,2.9792586E-2,-3.5426762E-2,-9.9066E-3,-4.8059005E-2,3.7582174E-2],"categories":[],"categories_nodes":[],"categories_segments":[],"categories_sizes":[],"default_left":[0,0,0,0,0,0,0,0,0,0,0,0,0,0,0,0,0,0,0,0,0,0,0,0,0,0,0,0,0],"id":37,"left_children":[1,3,5,7,9,11,13,15,17,19,21,23,25,27,-1,-1,-1,-1,-1,-1,-1,-1,-1,-1,-1,-1,-1,-1,-1],"loss_changes":[4.2400494E0,5.8916006E0,7.7755547E0,6.778657E0,4.340327E0,3.715703E0,5.1579676E0,5.4854145E0,6.2498198E0,4.979169E0,3.810687E0,1.8893244E0,4.2100544E0,5.5652165E0,0E0,0E0,0E0,0E0,0E0,0E0,0E0,0E0,0E0,0E0,0E0,0E0,0E0,0E0,0E0],"parents":[2147483647,0,0,1,1,2,2,3,3,4,4,5,5,6,6,7,7,8,8,9,9,10,10,11,11,12,12,13,13],"right_children":[2,4,6,8,10,12,14,16,18,20,22,24,26,28,-1,-1,-1,-1,-1,-1,-1,-1,-1,-1,-1,-1,-1,-1,-1],"split_conditions":[8.783703E0,7.138073E0,1.05E1,-1.0492634E-1,-2.6313255E0,-1.9976485E0,1.362276E-1,1.3306929E0,4.7095304E0,7.7106533E0,2.42E0,-4.178552E0,3.6E0,8.823847E-1,-4.3883145E-2,9.497262E-3,-2.5896922E-2,-2.765185E-2,-3.69666E-3,-4.6109278E-2,1.5020462E-2,6.778998E-3,4.3655854E-2,-1.718611E-2,2.9792586E-2,-3.5426762E-2,-9.9066E-3,-4.8059005E-2,3.7582174E-2],"split_indices":[3,3,4,11,10,10,11,9,3,3,5,10,4,9,0,0,0,0,0,0,0,0,0,0,0,0,0,0,0],"split_type":[0,0,0,0,0,0,0,0,0,0,0,0,0,0,0,0,0,0,0,0,0,0,0,0,0,0,0,0,0],"sum_hessian":[9.450452E2,8.4736707E2,9.767816E1,4.7722287E2,3.7014423E2,7.908953E1,1.8588627E1,1.5247527E2,3.247476E2,1.1969715E1,3.5817453E2,7.739467E0,7.135007E1,1.6698769E1,1.8898588E0,1.4163898E2,1.0836293E1,2.9179472E1,2.955681E2,7.1513395E0,4.818375E0,3.5192596E2,6.2485433E0,2.2640975E0,5.4753695E0,2.5917086E1,4.543298E1,1.2319837E0,1.5466785E1],"tree_param":{"num_deleted":"0","num_feature":"20","num_nodes":"29","size_leaf_vector":"1"}},{"base_weights":[1.8649412E-3,6.1426944E-1,-9.835719E-3,9.025868E-1,8.16419E-2,-8.353677E-2,9.3133874E-2,1.1394424E0,-1.1462173E-2,-5.165505E-2,6.449544E-1,-5.422396E-2,-3.7693402E-1,6.6575E-2,6.076696E-1,6.5177724E-2,1.6763465E-2,4.8636492E-2,-1.958081E-2,-3.324557E-3,5.2481096E-2,-1.3346703E-3,-3.4435704E-2,1.7465623E-3,1.8952701E-2,4.2292017E-2,-4.480401E-2],"categories":[],"categories_nodes":[],"categories_segments":[],"categories_sizes":[],"default_left":[0,0,0,0,0,0,0,0,0,0,0,0,0,0,0,0,0,0,0,0,0,0,0,0,0,0,0],"id":38,"left_children":[1,3,5,7,9,11,13,15,-1,-1,17,19,21,23,25,-1,-1,-1,-1,-1,-1,-1,-1,-1,-1,-1,-1],"loss_changes":[6.851277E0,2.5809717E0,7.0640793E0,3.4110813E0,5.3480945E0,4.607195E0,5.1922126E0,6.760855E-1,0E0,0E0,2.36522E0,6.6775465E0,5.244714E0,3.6050725E0,7.4606886E0,0E0,0E0,0E0,0E0,0E0,0E0,0E0,0E0,0E0,0E0,0E0,0E0],"parents":[2147483647,0,0,1,1,2,2,3,3,4,4,5,5,6,6,7,7,10,10,11,11,12,12,13,13,14,14],"right_children":[2,4,6,8,10,12,14,16,-1,-1,18,20,22,24,26,-1,-1,-1,-1,-1,-1,-1,-1,-1,-1,-1,-1],"split_conditions":[-7.2042114E-1,1.4249952E-1,9.5E0,1.1740348E0,5.84835E-1,2.7098665E-1,4.4226006E-1,8.907477E0,-1.1462173E-2,-5.165505E-2,1.5443833E0,2.5347483E-1,1.62E0,1.238E0,1.184E4,6.5177724E-2,1.6763465E-2,4.8636492E-2,-1.958081E-2,-3.324557E-3,5.2481096E-2,-1.3346703E-3,-3.4435704E-2,1.7465623E-3,1.8952701E-2,4.2292017E-2,-4.480401E-2],"split_indices":[11,10,4,7,10,11,11,3,0,0,10,11,5,6,17,0,0,0,0,0,0,0,0,0,0,0,0],"split_type":[0,0,0,0,0,0,0,0,0,0,0,0,0,0,0,0,0,0,0,0,0,0,0,0,0,0,0],"sum_hessian":[9.4586444E2,1.692771E1,9.289367E2,1.0410204E1,6.5175047E0,5.420916E2,3.8684512E2,8.676185E0,1.7340192E0,1.8483319E0,4.669173E0,4.942387E2,4.7852882E1,3.6911615E2,1.7728989E1,6.5866685E0,2.0895164E0,3.667521E0,1.0016519E0,4.8982556E2,4.41314E0,2.3198744E1,2.4654137E1,3.3647427E2,3.2641872E1,1.5740025E1,1.9889636E0],"tree_param":{"num_deleted":"0","num_feature":"20","num_nodes":"27","size_leaf_vector":"1"}},{"base_weights":[-1.4563433E-2,-1.0100087E-1,5.911481E-2,-6.3471544E-1,-9.35726E-3,6.688765E-1,2.7038043E-2,-9.004511E-1,-6.915455E-2,2.0573378E-1,-1.4809856E-1,2.760766E-1,6.511795E-2,4.3246448E-2,-9.250772E-1,-5.524698E-2,-1.3080488E-2,6.0585797E-2,-1.3022221E-2,1.6321953E-2,-1.0489071E-2,-1.1345907E-2,3.4762178E-2,3.4576867E-2,-4.948638E-2,-7.5510987E-3,5.878415E-3,8.053636E-3,-6.121626E-2],"categories":[],"categories_nodes":[],"categories_segments":[],"categories_sizes":[],"default_left":[0,0,0,0,0,0,0,0,0,0,0,0,0,0,0,0,0,0,0,0,0,0,0,0,0,0,0,0,0],"id":39,"left_children":[1,3,5,7,9,11,13,15,17,19,21,23,-1,25,27,-1,-1,-1,-1,-1,-1,-1,-1,-1,-1,-1,-1,-1,-1],"loss_changes":[5.8983564E0,2.0787577E1,9.674921E0,9.206581E0,1.0920724E1,5.6404066E0,7.288082E0,5.086319E0,5.396315E0,7.267571E0,1.4922117E1,9.406333E0,0E0,6.7785873E0,2.8708205E0,0E0,0E0,0E0,0E0,0E0,0E0,0E0,0E0,0E0,0E0,0E0,0E0,0E0,0E0],"parents":[2147483647,0,0,1,1,2,2,3,3,4,4,5,5,6,6,7,7,8,8,9,9,10,10,11,11,13,13,14,14],"right_children":[2,4,6,8,10,12,14,16,18,20,22,24,-1,26,28,-1,-1,-1,-1,-1,-1,-1,-1,-1,-1,-1,-1,-1,-1],"split_conditions":[9.65E-1,3.8833334E0,3.7233334E0,1.627E0,4.3966665E0,1.05E1,1.165232E0,9.11E-1,5.7E-1,2.02E0,2.6755E4,5.1783495E-2,6.511795E-2,1.476E0,7.2E-1,-5.524698E-2,-1.3080488E-2,6.0585797E-2,-1.3022221E-2,1.6321953E-2,-1.0489071E-2,-1.1345907E-2,3.4762178E-2,3.4576867E-2,-4.948638E-2,-7.5510987E-3,5.878415E-3,8.053636E-3,-6.121626E-2],"split_indices":[6,15,15,16,15,4,8,6,0,5,18,11,0,16,5,0,0,0,0,0,0,0,0,0,0,0,0,0,0],"split_type":[0,0,0,0,0,0,0,0,0,0,0,0,0,0,0,0,0,0,0,0,0,0,0,0,0,0,0,0,0],"sum_hessian":[9.23573E2,4.2544186E2,4.9813113E2,6.1318394E1,3.6412347E2,2.3746841E1,4.7438428E2,4.1193954E1,2.012444E1,1.4230461E2,2.2181886E2,1.5641665E1,8.105176E0,4.6748563E2,6.8986683E0,3.0534084E1,1.0659869E1,1.853857E0,1.8270582E1,1.1062391E2,3.1680702E1,2.0363632E2,1.8182543E1,1.217747E1,3.4641957E0,1.2870049E2,3.3878516E2,1.5176779E0,5.3809905E0],"tree_param":{"num_deleted":"0","num_feature":"20","num_nodes":"29","size_leaf_vector":"1"}},{"base_weights":[-1.5415107E-2,-4.614083E-2,1.8464468E-1,-2.4756461E-2,-3.3573377E-1,-8.886254E-1,2.487625E-1,-5.3811397E-2,2.5133455E-1,-6.4642996E-1,5.1320144E-3,-5.6770593E-2,-0E0,8.0058E-1,1.5034303E-1,-4.3521086E-3,9.903654E-3,4.0349245E-2,-1.6616306E-3,4.5246188E-2,-3.957583E-2,2.067597E-2,-2.9597083E-2,4.7367148E-2,6.8651885E-3,-1.262783E-2,1.755332E-2],"categories":[],"categories_nodes":[],"categories_segments":[],"categories_sizes":[],"default_left":[0,0,0,0,0,0,0,0,0,0,0,0,0,0,0,0,0,0,0,0,0,0,0,0,0,0,0],"id":40,"left_children":[1,3,5,7,9,11,13,15,17,19,21,-1,-1,23,25,-1,-1,-1,-1,-1,-1,-1,-1,-1,-1,-1,-1],"loss_changes":[5.786482E0,5.021387E0,8.773456E0,6.115707E0,5.982215E0,1.6253314E0,6.248492E0,5.7954445E0,1.1570132E1,7.317583E0,6.925229E0,0E0,0E0,1.4776268E0,8.378973E0,0E0,0E0,0E0,0E0,0E0,0E0,0E0,0E0,0E0,0E0,0E0,0E0],"parents":[2147483647,0,0,1,1,2,2,3,3,4,4,5,5,6,6,7,7,8,8,9,9,10,10,13,13,14,14],"right_children":[2,4,6,8,10,12,14,16,18,20,22,-1,-1,24,26,-1,-1,-1,-1,-1,-1,-1,-1,-1,-1,-1,-1],"split_conditions":[1.223E0,1.1998856E0,1.3091E4,2.6755E4,-3.5258064E-3,1.3705109E0,3.8833334E0,1.0854759E0,8.63E-1,4.056667E0,7.263799E-1,-5.6770593E-2,-0E0,2.06E0,4.37E0,-4.3521086E-3,9.903654E-3,4.0349245E-2,-1.6616306E-3,4.5246188E-2,-3.957583E-2,2.067597E-2,-2.9597083E-2,4.7367148E-2,6.8651885E-3,-1.262783E-2,1.755332E-2],"split_indices":[6,9,18,18,12,9,15,9,6,15,7,0,0,5,15,0,0,0,0,0,0,0,0,0,0,0,0],"split_type":[0,0,0,0,0,0,0,0,0,0,0,0,0,0,0,0,0,0,0,0,0,0,0,0,0,0,0],"sum_hessian":[9.412205E2,8.17011E2,1.2420954E2,7.621616E2,5.4849384E1,6.1892133E0,1.18020325E2,6.9064734E2,7.151423E1,2.837906E1,2.6470325E1,4.6644096E0,1.5248038E0,1.6629839E1,1.0139049E2,6.110799E2,7.956748E1,2.3717884E1,4.7796345E1,1.9202484E0,2.645881E1,1.6000908E1,1.0469419E1,1.3142711E1,3.4871278E0,3.3463943E1,6.7926544E1],"tree_param":{"num_deleted":"0","num_feature":"20","num_nodes":"27","size_leaf_vector":"1"}},{"base_weights":[6.5996055E-3,-3.410046E-2,1.3767529E-1,-5.4715358E-2,3.935059E-1,-2.3511958E-1,2.7544364E-1,-1.681841E-2,-3.476345E-1,8.7603426E-1,-1.5779133E-1,4.05842E-1,-4.225647E-1,8.03332E-1,8.9999504E-2,1.0464125E-3,-1.08147E-2,-2.4539692E-2,3.2175262E-3,-8.618857E-5,5.1807918E-2,7.727129E-3,-5.649514E-2,3.638287E-2,-1.2324525E-2,2.436013E-2,-2.706476E-2,1.8552465E-2,5.516423E-2,-2.1108517E-2,1.603769E-2],"categories":[],"categories_nodes":[],"categories_segments":[],"categories_sizes":[],"default_left":[0,0,0,0,0,0,0,0,0,0,0,0,0,0,0,0,0,0,0,0,0,0,0,0,0,0,0,0,0,0,0],"id":41,"left_children":[1,3,5,7,9,11,13,15,17,19,21,23,25,27,29,-1,-1,-1,-1,-1,-1,-1,-1,-1,-1,-1,-1,-1,-1,-1,-1],"loss_changes":[5.0809073E0,6.3769407E0,1.1664375E1,7.6458597E0,9.051156E0,7.533914E0,1.6040585E1,4.651671E0,4.732785E0,2.6312428E0,5.209933E0,3.2194154E0,5.4554043E0,4.9877167E0,1.4750419E1,0E0,0E0,0E0,0E0,0E0,0E0,0E0,0E0,0E0,0E0,0E0,0E0,0E0,0E0,0E0,0E0],"parents":[2147483647,0,0,1,1,2,2,3,3,4,4,5,5,6,6,7,7,8,8,9,9,10,10,11,11,12,12,13,13,14,14],"right_children":[2,4,6,8,10,12,14,16,18,20,22,24,26,28,30,-1,-1,-1,-1,-1,-1,-1,-1,-1,-1,-1,-1,-1,-1,-1,-1],"split_conditions":[1.156E0,6.5E0,1.476E0,1.37E0,9.46E-1,-5.3711194E-1,1.627E0,2.11E0,6.4844877E-1,1.15E0,1.655672E0,7.711101E0,1.166E0,1.223E0,4.02E0,1.0464125E-3,-1.08147E-2,-2.4539692E-2,3.2175262E-3,-8.618857E-5,5.1807918E-2,7.727129E-3,-5.649514E-2,3.638287E-2,-1.2324525E-2,2.436013E-2,-2.706476E-2,1.8552465E-2,5.516423E-2,-2.1108517E-2,1.603769E-2],"split_indices":[6,14,16,0,6,10,16,5,8,2,7,3,6,6,14,0,0,0,0,0,0,0,0,0,0,0,0,0,0,0,0],"split_type":[0,0,0,0,0,0,0,0,0,0,0,0,0,0,0,0,0,0,0,0,0,0,0,0,0,0,0,0,0,0,0],"sum_hessian":[9.485887E2,7.238151E2,2.2477359E2,6.9157996E2,3.2235157E1,6.0265476E1,1.645081E2,6.1359393E2,7.798603E1,1.6972317E1,1.5262839E1,1.3252031E1,4.7013443E1,4.1760574E1,1.2274753E2,5.1629034E2,9.730357E1,5.791334E1,2.0072685E1,2.6747518E0,1.4297565E1,1.2110091E1,3.1527483E0,8.899476E0,4.3525553E0,4.971773E0,4.204167E1,1.8159729E1,2.3600847E1,3.7733467E1,8.501407E1],"tree_param":{"num_deleted":"0","num_feature":"20","num_nodes":"31","size_leaf_vector":"1"}},{"base_weights":[7.637946E-3,-1.5048127E-1,4.7884014E-2,1.4138037E-1,-4.208804E-1,1.8678482E-1,-5.2191626E-2,4.0546778E-1,-2.9844546E-1,-6.3146067E-1,-8.235187E-2,2.5859427E-1,-1.8568903E-1,-5.5876765E-3,-3.8851327E-1,9.010522E-3,3.7798066E-2,-2.336237E-2,2.4384484E-2,-4.2538386E-2,7.177291E-3,7.868874E-3,-2.7069151E-2,2.4806123E-2,5.749623E-3,-1.53197E-2,3.386193E-2,1.7703224E-2,-2.0406905E-3,-5.915279E-2,-1.2805018E-2],"categories":[],"categories_nodes":[],"categories_segments":[],"categories_sizes":[],"default_left":[0,0,0,0,0,0,0,0,0,0,0,0,0,0,0,0,0,0,0,0,0,0,0,0,0,0,0,0,0,0,0],"id":42,"left_children":[1,3,5,7,9,11,13,15,17,19,21,23,25,27,29,-1,-1,-1,-1,-1,-1,-1,-1,-1,-1,-1,-1,-1,-1,-1,-1],"loss_changes":[5.970196E0,1.5096155E1,1.0441271E1,1.0821235E1,6.9446316E0,8.467029E0,6.791915E0,4.354784E0,4.865183E0,1.0525536E1,4.4543376E0,8.897057E0,5.502144E0,4.8505363E0,5.106497E0,0E0,0E0,0E0,0E0,0E0,0E0,0E0,0E0,0E0,0E0,0E0,0E0,0E0,0E0,0E0,0E0],"parents":[2147483647,0,0,1,1,2,2,3,3,4,4,5,5,6,6,7,7,8,8,9,9,10,10,11,11,12,12,13,13,14,14],"right_children":[2,4,6,8,10,12,14,16,18,20,22,24,26,28,30,-1,-1,-1,-1,-1,-1,-1,-1,-1,-1,-1,-1,-1,-1,-1,-1],"split_conditions":[8.855521E-1,-5.917E3,6.8810534E-1,1.09E0,6.083318E-1,2.0929572E-1,1.1895436E0,5.913368E-4,3.1803733E-1,2.5912E4,4.06E0,4.4366665E0,5.659562E-2,2.1E0,4.0595326E-1,9.010522E-3,3.7798066E-2,-2.336237E-2,2.4384484E-2,-4.2538386E-2,7.177291E-3,7.868874E-3,-2.7069151E-2,2.4806123E-2,5.749623E-3,-1.53197E-2,3.386193E-2,1.7703224E-2,-2.0406905E-3,-5.915279E-2,-1.2805018E-2],"split_indices":[9,17,7,0,7,11,9,7,11,17,14,15,12,4,10,0,0,0,0,0,0,0,0,0,0,0,0,0,0,0,0],"split_type":[0,0,0,0,0,0,0,0,0,0,0,0,0,0,0,0,0,0,0,0,0,0,0,0,0,0,0,0,0,0,0],"sum_hessian":[9.376475E2,1.8917822E2,7.484693E2,9.103009E1,9.814813E1,3.1349048E2,4.3497882E2,5.7069168E1,3.3960926E1,5.9793278E1,3.8354855E1,2.6330246E2,5.018802E1,3.831938E2,5.1785053E1,3.5836815E1,2.1232355E1,2.8396387E1,5.5645366E0,4.6629574E1,1.3163705E1,2.5484737E1,1.2870119E1,9.801955E1,1.652829E2,4.469673E1,5.491288E0,3.312311E1,3.5007065E2,6.1560307E0,4.562902E1],"tree_param":{"num_deleted":"0","num_feature":"20","num_nodes":"31","size_leaf_vector":"1"}},{"base_weights":[-1.1745761E-2,7.346267E-1,-1.7691655E-2,1.05901584E-1,7.1320616E-2,1.02575086E-1,-5.2729335E-2,-2.3093669E-2,4.9624613E-1,-2.2251098E-1,2.0094892E-1,-6.8915826E-1,-3.4692086E-2,8.365583E-4,3.4672998E-2,1.3590074E-2,-2.8328126E-2,-3.3263096E-3,2.1584816E-2,-1.067178E-2,-6.12324E-2,-3.5833062E-3,6.968032E-3],"categories":[],"categories_nodes":[],"categories_segments":[],"categories_sizes":[],"default_left":[0,0,0,0,0,0,0,0,0,0,0,0,0,0,0,0,0,0,0,0,0,0,0],"id":43,"left_children":[1,3,5,7,-1,9,11,-1,13,15,17,19,21,-1,-1,-1,-1,-1,-1,-1,-1,-1,-1],"loss_changes":[4.089197E0,2.8610647E0,3.9125159E0,1.3338009E0,0E0,6.731017E0,8.171646E0,0E0,2.5126982E-1,8.487063E0,1.0021801E1,4.599058E0,4.518288E0,0E0,0E0,0E0,0E0,0E0,0E0,0E0,0E0,0E0,0E0],"parents":[2147483647,0,0,1,1,2,2,3,3,5,5,6,6,8,8,9,9,10,10,11,11,12,12],"right_children":[2,4,6,8,-1,10,12,-1,14,16,18,20,22,-1,-1,-1,-1,-1,-1,-1,-1,-1,-1],"split_conditions":[5.5729574E-1,6.6E-1,-2.520984E-1,-5.2433157E-1,7.1320616E-2,8.730376E-1,-2.3005576E-1,-2.3093669E-2,2.3177902E-1,-5.917E3,-5.917E3,9.93E-1,1.203E0,8.365583E-4,3.4672998E-2,1.3590074E-2,-2.8328126E-2,-3.3263096E-3,2.1584816E-2,-1.067178E-2,-6.12324E-2,-3.5833062E-3,6.968032E-3],"split_indices":[9,1,11,8,0,9,11,0,7,17,17,6,6,0,0,0,0,0,0,0,0,0,0],"split_type":[0,0,0,0,0,0,0,0,0,0,0,0,0,0,0,0,0,0,0,0,0,0,0],"sum_hessian":[9.3366266E2,6.2776318E0,9.27385E2,3.968512E0,2.30912E0,2.081453E2,7.1923975E2,1.4377728E0,2.530739E0,4.782487E1,1.6032042E2,1.8644182E1,7.005956E2,1.2014291E0,1.32931E0,1.9593483E1,2.8231388E1,7.4379906E1,8.594052E1,1.0712581E1,7.931602E0,5.7880316E2,1.21792404E2],"tree_param":{"num_deleted":"0","num_feature":"20","num_nodes":"23","size_leaf_vector":"1"}},{"base_weights":[-1.3391728E-2,-1.4592004E-1,2.6157444E-2,2.3459025E-1,-3.234424E-1,8.658689E-2,-1.1031315E-1,-1.9817628E-1,4.7776097E-1,-8.228747E-1,-6.35659E-2,-8.8707134E-2,1.535571E-1,7.336952E-1,-1.601366E-1,2.5197582E-3,-4.5387607E-2,4.054214E-2,2.5647555E-3,-5.31331E-2,3.2069494E-3,2.3915067E-2,-1.2445769E-2,-1.5531917E-2,7.432827E-3,2.5095833E-2,4.609542E-3,5.7692062E-2,3.0253602E-3,4.638812E-3,-1.6242396E-2],"categories":[],"categories_nodes":[],"categories_segments":[],"categories_sizes":[],"default_left":[0,0,0,0,0,0,0,0,0,0,0,0,0,0,0,0,0,0,0,0,0,0,0,0,0,0,0,0,0,0,0],"id":44,"left_children":[1,3,5,7,9,11,13,15,17,19,21,23,25,27,29,-1,-1,-1,-1,-1,-1,-1,-1,-1,-1,-1,-1,-1,-1,-1,-1],"loss_changes":[4.8718567E0,1.4518E1,5.8938932E0,7.318017E0,1.8847015E1,5.840656E0,9.269585E0,4.568595E0,6.153146E0,1.077195E1,9.882639E0,7.294072E0,7.5801744E0,3.280549E0,8.706863E0,0E0,0E0,0E0,0E0,0E0,0E0,0E0,0E0,0E0,0E0,0E0,0E0,0E0,0E0,0E0,0E0],"parents":[2147483647,0,0,1,1,2,2,3,3,4,4,5,5,6,6,7,7,8,8,9,9,10,10,11,11,12,12,13,13,14,14],"right_children":[2,4,6,8,10,12,14,16,18,20,22,24,26,28,30,-1,-1,-1,-1,-1,-1,-1,-1,-1,-1,-1,-1,-1,-1,-1,-1],"split_conditions":[8.35E-1,-5.917E3,8.8992316E-1,1.431E0,5.2431417E-1,-3.6540274E-2,8.63E-1,-7.532447E-1,7.7E-1,1.5395E4,1.47E0,5.6E-1,-7.5297475E-1,1.3931464E0,1.5326E4,2.5197582E-3,-4.5387607E-2,4.054214E-2,2.5647555E-3,-5.31331E-2,3.2069494E-3,2.3915067E-2,-1.2445769E-2,-1.5531917E-2,7.432827E-3,2.5095833E-2,4.609542E-3,5.7692062E-2,3.0253602E-3,4.638812E-3,-1.6242396E-2],"split_indices":[6,17,7,16,7,13,6,7,6,17,16,1,10,7,18,0,0,0,0,0,0,0,0,0,0,0,0,0,0,0,0],"split_type":[0,0,0,0,0,0,0,0,0,0,0,0,0,0,0,0,0,0,0,0,0,0,0,0,0,0,0,0,0,0,0],"sum_hessian":[9.2548474E2,2.1267038E2,7.128144E2,6.737362E1,1.4529677E2,4.9480988E2,2.1800452E2,2.4156513E1,4.3217106E1,4.885524E1,9.644152E1,1.3628006E2,3.5852982E2,1.1274902E1,2.0672961E2,1.8473213E1,5.6833E0,2.362754E1,1.9589567E1,3.8391537E1,1.0463705E1,2.4040195E1,7.240133E1,7.048775E1,6.579231E1,5.2379147E1,3.0615067E2,6.4111023E0,4.863801E0,8.1467125E1,1.2526248E2],"tree_param":{"num_deleted":"0","num_feature":"20","num_nodes":"31","size_leaf_vector":"1"}},{"base_weights":[-1.1882777E-2,-4.2440952E-4,-4.9222872E-1,-1.5284622E-2,5.7335275E-1,3.2274503E-2,-6.8659115E-1,7.826917E-3,-3.1399697E-1,9.003435E-1,-1.10340774E-1,-1.0162476E0,5.380398E-2,-3.2838155E-3,4.4977474E-3,-7.913905E-3,-4.264511E-2,5.077057E-2,-1.3630469E-2,9.380161E-3,-5.6029897E-2,-6.269826E-2,-1.1448632E-2,2.0365207E-2,-2.7676795E-2],"categories":[],"categories_nodes":[],"categories_segments":[],"categories_sizes":[],"default_left":[0,0,0,0,0,0,0,0,0,0,0,0,0,0,0,0,0,0,0,0,0,0,0,0,0],"id":45,"left_children":[1,3,5,7,9,-1,11,13,15,17,19,21,23,-1,-1,-1,-1,-1,-1,-1,-1,-1,-1,-1,-1],"loss_changes":[5.0691104E0,7.7078953E0,5.1934123E0,6.161483E0,5.279323E0,0E0,4.7617702E0,4.9862638E0,5.1417065E0,2.462411E0,2.7638795E0,2.0377388E0,1.6441628E0,0E0,0E0,0E0,0E0,0E0,0E0,0E0,0E0,0E0,0E0,0E0,0E0],"parents":[2147483647,0,0,1,1,2,2,3,3,4,4,6,6,7,7,8,8,9,9,10,10,11,11,12,12],"right_children":[2,4,6,8,10,-1,12,14,16,18,20,22,24,-1,-1,-1,-1,-1,-1,-1,-1,-1,-1,-1,-1],"split_conditions":[1.284E0,1.277E0,3.8833334E0,9.053102E0,3.7382938E-2,3.2274503E-2,4.7066665E0,7.1024995E0,6.970144E-1,1.0475235E0,1.55E0,1.5328E4,4.5E-1,-3.2838155E-3,4.4977474E-3,-7.913905E-3,-4.264511E-2,5.077057E-2,-1.3630469E-2,9.380161E-3,-5.6029897E-2,-6.269826E-2,-1.1448632E-2,2.0365207E-2,-2.7676795E-2],"split_indices":[6,6,15,3,12,0,15,3,8,8,5,17,1,0,0,0,0,0,0,0,0,0,0,0,0],"split_type":[0,0,0,0,0,0,0,0,0,0,0,0,0,0,0,0,0,0,0,0,0,0,0,0,0],"sum_hessian":[9.289786E2,9.0851556E2,2.0463032E1,8.8669867E2,2.1816898E1,2.5720034E0,1.789103E1,8.236142E2,6.3084454E1,1.4642972E1,7.173926E0,1.2214906E1,5.6761236E0,4.3409186E2,3.895223E2,5.0090008E1,1.2994447E1,1.3534764E1,1.1082078E0,6.0924606E0,1.0814652E0,8.829137E0,3.3857691E0,3.9000998E0,1.7760236E0],"tree_param":{"num_deleted":"0","num_feature":"20","num_nodes":"25","size_leaf_vector":"1"}},{"base_weights":[1.2888539E-2,2.2741767E-2,-4.5755607E-1,8.780929E-3,6.6414255E-1,-0E0,-1.1896288E0,4.3555334E-1,-2.0326015E-3,8.4443074E-1,-0E0,-5.106946E-1,4.7676507E-1,-3.0387035E-3,-7.10305E-2,3.0879451E-2,-1.51456315E-2,1.4658752E-2,-1.0631847E-3,5.9114257E-3,4.8077587E-2,2.432519E-2,-3.8749196E-2,1.574827E-2,-5.6996524E-2,5.0494343E-2,-2.4707412E-2],"categories":[],"categories_nodes":[],"categories_segments":[],"categories_sizes":[],"default_left":[0,0,0,0,0,0,0,0,0,0,0,0,0,0,0,0,0,0,0,0,0,0,0,0,0,0,0],"id":46,"left_children":[1,3,5,7,9,11,13,15,17,19,21,23,25,-1,-1,-1,-1,-1,-1,-1,-1,-1,-1,-1,-1,-1,-1],"loss_changes":[4.321305E0,8.176341E0,6.344165E0,4.2106133E0,2.366887E0,3.3617713E0,1.6715307E0,3.2489514E0,4.9821186E0,1.0844545E0,2.3135834E0,3.9285066E0,4.219823E0,0E0,0E0,0E0,0E0,0E0,0E0,0E0,0E0,0E0,0E0,0E0,0E0,0E0,0E0],"parents":[2147483647,0,0,1,1,2,2,3,3,4,4,5,5,6,6,7,7,8,8,9,9,10,10,11,11,12,12],"right_children":[2,4,6,8,10,12,14,16,18,20,22,24,26,-1,-1,-1,-1,-1,-1,-1,-1,-1,-1,-1,-1,-1,-1],"split_conditions":[1.284E0,1.278E0,3.8495058E-1,6.3721853E-1,1.283E0,-5.917E3,1.57E0,1.1838E4,-2.1017964E0,4.02E0,7.8537357E-1,-7.532447E-1,4.5E-1,-3.0387035E-3,-7.10305E-2,3.0879451E-2,-1.51456315E-2,1.4658752E-2,-1.0631847E-3,5.9114257E-3,4.8077587E-2,2.432519E-2,-3.8749196E-2,1.574827E-2,-5.6996524E-2,5.0494343E-2,-2.4707412E-2],"split_indices":[6,6,19,9,6,17,16,17,10,14,7,7,1,0,0,0,0,0,0,0,0,0,0,0,0,0,0],"split_type":[0,0,0,0,0,0,0,0,0,0,0,0,0,0,0,0,0,0,0,0,0,0,0,0,0,0,0],"sum_hessian":[9.3837585E2,9.2026556E2,1.811028E1,9.018063E2,1.8459269E1,1.1800412E1,6.3098664E0,2.1543129E1,8.802632E2,1.43564E1,4.102869E0,5.7117176E0,6.0886946E0,1.3598813E0,4.949985E0,1.7522776E1,4.0203524E0,5.26477E1,8.276155E2,2.3914738E0,1.1964926E1,2.7146125E0,1.3882567E0,2.6175673E0,3.09415E0,3.9710648E0,2.11763E0],"tree_param":{"num_deleted":"0","num_feature":"20","num_nodes":"27","size_leaf_vector":"1"}},{"base_weights":[-4.6896576E-3,-4.0724974E-2,1.0907377E-1,-3.0441403E-2,-7.0326144E-1,-4.8537856E-1,1.852018E-1,-4.4837326E-4,-2.4252138E-1,3.1416664E-1,-1.0584265E0,3.2680985E-1,-6.8925357E-1,3.7171736E-1,-5.2842468E-2,